booster[0]:
0:[f4<1] yes=1,no=2,missing=2
	1:[f0<61] yes=3,no=4,missing=4
		3:[f2<1] yes=7,no=8,missing=8
			7:[f25<1] yes=15,no=16,missing=16
				15:[f0<42] yes=23,no=24,missing=24
					23:[f31<1] yes=29,no=30,missing=30
						29:[f26<1] yes=37,no=38,missing=38
							37:leaf=0.0698158145
							38:leaf=-0.298132449
						30:leaf=0.132566035
					24:[f0<50] yes=31,no=32,missing=32
						31:[f0<47] yes=39,no=40,missing=40
							39:leaf=-0.251838356
							40:leaf=0.0698158145
						32:leaf=-0.332072943
				16:leaf=0.129970729
			8:[f28<1] yes=17,no=18,missing=18
				17:leaf=-0.400457114
				18:leaf=-0.0933270156
		4:[f35<1] yes=9,no=10,missing=10
			9:leaf=-0.0933270156
			10:leaf=0.222832173
	2:[f27<1] yes=5,no=6,missing=6
		5:[f34<1] yes=11,no=12,missing=12
			11:[f2<1] yes=19,no=20,missing=20
				19:[f0<51] yes=25,no=26,missing=26
					25:[f32<1] yes=33,no=34,missing=34
						33:leaf=0.282198817
						34:[f0<45] yes=41,no=42,missing=42
							41:leaf=0.132566035
							42:leaf=0.0183218531
					26:leaf=-0.204975903
				20:[f31<1] yes=27,no=28,missing=28
					27:leaf=0.402674794
					28:[f0<61] yes=35,no=36,missing=36
						35:leaf=0.129970729
						36:leaf=-0.00348859234
			12:leaf=0.0334976353
		6:[f32<1] yes=13,no=14,missing=14
			13:[f31<1] yes=21,no=22,missing=22
				21:leaf=-0.298132449
				22:leaf=-0.0933270156
			14:leaf=0.0777638927
booster[1]:
0:[f4<1] yes=1,no=2,missing=2
	1:[f0<61] yes=3,no=4,missing=4
		3:[f0<54] yes=7,no=8,missing=8
			7:[f25<1] yes=15,no=16,missing=16
				15:[f5<1] yes=23,no=24,missing=24
					23:[f0<42] yes=27,no=28,missing=28
						27:[f28<1] yes=31,no=32,missing=32
							31:leaf=0.120951347
							32:leaf=-0.159123778
						28:[f0<47] yes=33,no=34,missing=34
							33:leaf=-0.203009561
							34:leaf=-0.0101156738
					24:leaf=-0.267442763
				16:leaf=0.103865668
			8:leaf=-0.299938619
		4:[f35<1] yes=9,no=10,missing=10
			9:leaf=-0.0768613592
			10:leaf=0.172666207
	2:[f27<1] yes=5,no=6,missing=6
		5:[f0<64] yes=11,no=12,missing=12
			11:[f2<1] yes=17,no=18,missing=18
				17:[f0<51] yes=25,no=26,missing=26
					25:[f0<41] yes=29,no=30,missing=30
						29:[f31<1] yes=35,no=36,missing=36
							35:leaf=-0.0664900541
							36:leaf=0.217289001
						30:[f0<46] yes=37,no=38,missing=38
							37:leaf=0.284289569
							38:leaf=0.117055945
					26:leaf=-0.225553989
				18:leaf=0.29626444
			12:[f28<1] yes=19,no=20,missing=20
				19:leaf=0.14179112
				20:leaf=-0.101003289
		6:[f32<1] yes=13,no=14,missing=14
			13:[f31<1] yes=21,no=22,missing=22
				21:leaf=-0.258477718
				22:leaf=-0.0768613592
			14:leaf=0.0617520139
booster[2]:
0:[f27<1] yes=1,no=2,missing=2
	1:[f4<1] yes=3,no=4,missing=4
		3:[f0<61] yes=7,no=8,missing=8
			7:[f5<1] yes=15,no=16,missing=16
				15:[f0<44] yes=23,no=24,missing=24
					23:leaf=-0.158443317
					24:[f23<1] yes=35,no=36,missing=36
						35:leaf=-0.0895198882
						36:leaf=0.17154415
				16:[f31<1] yes=25,no=26,missing=26
					25:leaf=-0.226363674
					26:leaf=-0.0362633057
			8:leaf=0.126871303
		4:[f25<1] yes=9,no=10,missing=10
			9:[f31<1] yes=17,no=18,missing=18
				17:[f2<1] yes=27,no=28,missing=28
					27:[f0<50] yes=37,no=38,missing=38
						37:leaf=0.250261426
						38:leaf=-0.160600439
					28:leaf=0.303891957
				18:[f0<59] yes=29,no=30,missing=30
					29:[f0<54] yes=39,no=40,missing=40
						39:[f0<46] yes=43,no=44,missing=44
							43:leaf=0.0409442633
							44:leaf=-0.0436590612
						40:leaf=0.22389029
					30:leaf=-0.167755425
			10:[f32<1] yes=19,no=20,missing=20
				19:[f0<42] yes=31,no=32,missing=32
					31:leaf=-0.0649652481
					32:[f0<51] yes=41,no=42,missing=42
						41:leaf=0.32377702
						42:[f0<61] yes=45,no=46,missing=46
							45:leaf=-0.0533588417
							46:leaf=0.148091316
				20:leaf=-0.0959172547
	2:[f0<45] yes=5,no=6,missing=6
		5:[f0<38] yes=11,no=12,missing=12
			11:leaf=-0.0718561038
			12:leaf=0.114188917
		6:[f0<63] yes=13,no=14,missing=14
			13:[f32<1] yes=21,no=22,missing=22
				21:leaf=-0.239531755
				22:[f28<1] yes=33,no=34,missing=34
					33:leaf=0.0126534952
					34:leaf=-0.148730308
			14:leaf=-0.0193047225
booster[3]:
0:[f4<1] yes=1,no=2,missing=2
	1:[f8<1] yes=3,no=4,missing=4
		3:[f0<61] yes=7,no=8,missing=8
			7:[f0<54] yes=13,no=14,missing=14
				13:[f6<1] yes=21,no=22,missing=22
					21:[f31<1] yes=29,no=30,missing=30
						29:[f0<48] yes=37,no=38,missing=38
							37:leaf=-0.285659462
							38:leaf=0.00891657919
						30:[f0<45] yes=39,no=40,missing=40
							39:leaf=0.237117931
							40:leaf=-0.261309296
					22:[f31<1] yes=31,no=32,missing=32
						31:leaf=0.130485758
						32:leaf=-0.107792564
				14:leaf=-0.300187021
			8:[f0<64] yes=15,no=16,missing=16
				15:leaf=0.177091017
				16:leaf=-0.0237053577
		4:leaf=0.152143896
	2:[f27<1] yes=5,no=6,missing=6
		5:[f34<1] yes=9,no=10,missing=10
			9:[f0<55] yes=17,no=18,missing=18
				17:[f0<51] yes=23,no=24,missing=24
					23:[f25<1] yes=33,no=34,missing=34
						33:[f0<45] yes=41,no=42,missing=42
							41:leaf=0.242564902
							42:leaf=0.0299451482
						34:[f31<1] yes=43,no=44,missing=44
							43:leaf=-0.122937672
							44:leaf=0.208994836
					24:leaf=-0.162420541
				18:[f31<1] yes=25,no=26,missing=26
					25:leaf=0.276691884
					26:[f0<62] yes=35,no=36,missing=36
						35:leaf=0.120024532
						36:leaf=-0.125912219
			10:leaf=-0.0185579397
		6:[f28<1] yes=11,no=12,missing=12
			11:[f2<1] yes=19,no=20,missing=20
				19:leaf=-0.0991130248
				20:[f32<1] yes=27,no=28,missing=28
					27:leaf=-0.0605193712
					28:leaf=0.163887709
			12:leaf=-0.217563927
booster[4]:
0:[f27<1] yes=1,no=2,missing=2
	1:[f0<41] yes=3,no=4,missing=4
		3:[f31<1] yes=7,no=8,missing=8
			7:[f32<1] yes=15,no=16,missing=16
				15:leaf=-0.0456092581
				16:leaf=-0.290907085
			8:leaf=0.171084955
		4:[f24<1] yes=9,no=10,missing=10
			9:[f34<1] yes=17,no=18,missing=18
				17:[f0<58] yes=23,no=24,missing=24
					23:[f5<1] yes=31,no=32,missing=32
						31:[f0<51] yes=35,no=36,missing=36
							35:leaf=0.125714064
							36:leaf=-0.0440355837
						32:leaf=-0.0769282877
					24:[f0<67] yes=33,no=34,missing=34
						33:[f31<1] yes=37,no=38,missing=38
							37:leaf=0.276263565
							38:leaf=0.086687088
						34:leaf=0.0138462186
				18:[f0<53] yes=25,no=26,missing=26
					25:leaf=0.102411665
					26:leaf=-0.152080804
			10:leaf=-0.0971779749
	2:[f0<45] yes=5,no=6,missing=6
		5:[f0<38] yes=11,no=12,missing=12
			11:leaf=-0.0410995483
			12:leaf=0.0943241417
		6:[f4<1] yes=13,no=14,missing=14
			13:[f0<58] yes=19,no=20,missing=20
				19:leaf=-0.259426236
				20:[f32<1] yes=27,no=28,missing=28
					27:leaf=0.0434279144
					28:leaf=-0.0407625027
			14:[f0<56] yes=21,no=22,missing=22
				21:[f2<1] yes=29,no=30,missing=30
					29:leaf=-0.085783422
					30:leaf=0.144318148
				22:leaf=-0.161074027
booster[5]:
0:[f27<1] yes=1,no=2,missing=2
	1:[f3<1] yes=3,no=4,missing=4
		3:[f0<64] yes=7,no=8,missing=8
			7:[f0<53] yes=15,no=16,missing=16
				15:leaf=-0.0119498549
				16:[f32<1] yes=25,no=26,missing=26
					25:[f25<1] yes=39,no=40,missing=40
						39:[f28<1] yes=45,no=46,missing=46
							45:leaf=0.00820292812
							46:leaf=0.299853384
						40:leaf=-0.0580254681
					26:leaf=0.312099069
			8:[f28<1] yes=17,no=18,missing=18
				17:[f25<1] yes=27,no=28,missing=28
					27:leaf=-0.0558322072
					28:leaf=0.261019945
				18:leaf=-0.211523056
		4:[f0<51] yes=9,no=10,missing=10
			9:[f0<47] yes=19,no=20,missing=20
				19:[f0<46] yes=29,no=30,missing=30
					29:[f0<44] yes=41,no=42,missing=42
						41:[f0<33] yes=47,no=48,missing=48
							47:leaf=0.173027217
							48:leaf=-0.0872269273
						42:leaf=0.192073777
					30:leaf=-0.211565614
				20:[f28<1] yes=31,no=32,missing=32
					31:leaf=-0.0111673474
					32:[f0<48] yes=43,no=44,missing=44
						43:leaf=0.0751691163
						44:leaf=0.332018286
			10:leaf=-0.273305416
	2:[f0<45] yes=5,no=6,missing=6
		5:[f35<1] yes=11,no=12,missing=12
			11:leaf=-0.0390842296
			12:leaf=0.082841143
		6:[f4<1] yes=13,no=14,missing=14
			13:[f0<58] yes=21,no=22,missing=22
				21:[f0<48] yes=33,no=34,missing=34
					33:leaf=-0.0538272597
					34:leaf=-0.261962026
				22:[f23<1] yes=35,no=36,missing=36
					35:leaf=0.0386990383
					36:leaf=-0.0327691734
			14:[f0<56] yes=23,no=24,missing=24
				23:[f2<1] yes=37,no=38,missing=38
					37:leaf=-0.0738165602
					38:leaf=0.115773045
				24:leaf=-0.137278318
booster[6]:
0:[f27<1] yes=1,no=2,missing=2
	1:[f3<1] yes=3,no=4,missing=4
		3:[f0<64] yes=7,no=8,missing=8
			7:[f0<53] yes=15,no=16,missing=16
				15:leaf=-0.0100397747
				16:[f32<1] yes=27,no=28,missing=28
					27:[f25<1] yes=37,no=38,missing=38
						37:[f28<1] yes=43,no=44,missing=44
							43:leaf=0.00680282665
							44:leaf=0.259810358
						38:leaf=-0.0469092503
					28:leaf=0.271519661
			8:[f28<1] yes=17,no=18,missing=18
				17:[f25<1] yes=29,no=30,missing=30
					29:leaf=-0.0467391908
					30:leaf=0.229804143
				18:leaf=-0.17089206
		4:[f0<51] yes=9,no=10,missing=10
			9:[f0<47] yes=19,no=20,missing=20
				19:[f0<46] yes=31,no=32,missing=32
					31:[f4<1] yes=39,no=40,missing=40
						39:[f31<1] yes=45,no=46,missing=46
							45:leaf=-0.213800102
							46:leaf=0.0556562096
						40:[f0<42] yes=47,no=48,missing=48
							47:leaf=0.0157689527
							48:leaf=0.179659858
					32:leaf=-0.179078907
				20:[f28<1] yes=33,no=34,missing=34
					33:leaf=-0.0089229187
					34:[f0<48] yes=41,no=42,missing=42
						41:leaf=0.0627076253
						42:leaf=0.282195568
			10:leaf=-0.24334617
	2:[f0<50] yes=5,no=6,missing=6
		5:[f28<1] yes=11,no=12,missing=12
			11:[f36<1] yes=21,no=22,missing=22
				21:leaf=0.121476091
				22:leaf=-0.00383865228
			12:leaf=-0.0875381231
		6:[f0<55] yes=13,no=14,missing=14
			13:[f32<1] yes=23,no=24,missing=24
				23:leaf=-0.218007073
				24:leaf=-0.0417157672
			14:[f0<62] yes=25,no=26,missing=26
				25:leaf=0.00934942346
				26:[f28<1] yes=35,no=36,missing=36
					35:leaf=0.0153543828
					36:leaf=-0.138282076
booster[7]:
0:[f27<1] yes=1,no=2,missing=2
	1:[f3<1] yes=3,no=4,missing=4
		3:[f0<64] yes=7,no=8,missing=8
			7:[f0<53] yes=15,no=16,missing=16
				15:leaf=-0.00843489263
				16:[f32<1] yes=23,no=24,missing=24
					23:[f25<1] yes=31,no=32,missing=32
						31:[f28<1] yes=39,no=40,missing=40
							39:leaf=0.00564176543
							40:leaf=0.229153156
						32:leaf=-0.037924543
					24:leaf=0.240209445
			8:[f28<1] yes=17,no=18,missing=18
				17:leaf=0.100494884
				18:leaf=-0.139495209
		4:[f0<51] yes=9,no=10,missing=10
			9:[f5<1] yes=19,no=20,missing=20
				19:[f0<47] yes=25,no=26,missing=26
					25:[f0<46] yes=33,no=34,missing=34
						33:[f0<44] yes=41,no=42,missing=42
							41:leaf=0.00275047822
							42:leaf=0.138895452
						34:leaf=-0.152557284
					26:[f0<50] yes=35,no=36,missing=36
						35:leaf=0.232409894
						36:leaf=-0.027540423
				20:leaf=-0.116209917
			10:leaf=-0.219031647
	2:[f0<45] yes=5,no=6,missing=6
		5:[f0<38] yes=11,no=12,missing=12
			11:leaf=-0.0398556106
			12:leaf=0.0786634684
		6:[f0<63] yes=13,no=14,missing=14
			13:[f0<50] yes=21,no=22,missing=22
				21:[f28<1] yes=27,no=28,missing=28
					27:leaf=0.0150071336
					28:leaf=-0.0592125542
				22:[f28<1] yes=29,no=30,missing=30
					29:[f0<56] yes=37,no=38,missing=38
						37:leaf=-0.00874912366
						38:leaf=-0.244370222
					30:leaf=-0.0309653636
			14:leaf=0.00876771193
booster[8]:
0:[f36<1] yes=1,no=2,missing=2
	1:[f23<1] yes=3,no=4,missing=4
		3:[f32<1] yes=7,no=8,missing=8
			7:leaf=-0.197827175
			8:leaf=-0.0553907156
		4:[f0<41] yes=9,no=10,missing=10
			9:[f25<1] yes=15,no=16,missing=16
				15:leaf=-0.0919494182
				16:leaf=0.0303300563
			10:[f0<45] yes=17,no=18,missing=18
				17:[f25<1] yes=23,no=24,missing=24
					23:leaf=0.341203332
					24:leaf=-0.128442794
				18:[f0<47] yes=25,no=26,missing=26
					25:leaf=-0.0941979811
					26:[f4<1] yes=29,no=30,missing=30
						29:[f28<1] yes=31,no=32,missing=32
							31:leaf=-0.117120773
							32:leaf=0.0664581209
						30:[f0<50] yes=33,no=34,missing=34
							33:leaf=0.203264445
							34:leaf=0.0410808846
	2:[f23<1] yes=5,no=6,missing=6
		5:[f0<59] yes=11,no=12,missing=12
			11:[f35<1] yes=19,no=20,missing=20
				19:leaf=0.167128846
				20:leaf=-0.00967464969
			12:leaf=-0.0308858138
		6:[f0<65] yes=13,no=14,missing=14
			13:[f0<46] yes=21,no=22,missing=22
				21:[f0<37] yes=27,no=28,missing=28
					27:leaf=-0.0853502154
					28:leaf=0.0135294721
				22:leaf=-0.237388521
			14:leaf=0.0248316582
booster[9]:
0:[f0<34] yes=1,no=2,missing=2
	1:leaf=0.142204091
	2:[f0<37] yes=3,no=4,missing=4
		3:[f32<1] yes=5,no=6,missing=6
			5:leaf=-0.0535368957
			6:leaf=-0.217177704
		4:[f0<39] yes=7,no=8,missing=8
			7:leaf=0.12582086
			8:[f36<1] yes=9,no=10,missing=10
				9:[f23<1] yes=11,no=12,missing=12
					11:leaf=-0.141828358
					12:[f0<41] yes=15,no=16,missing=16
						15:leaf=-0.117731355
						16:[f0<45] yes=21,no=22,missing=22
							21:leaf=0.132365197
							22:leaf=0.0336683244
				10:[f23<1] yes=13,no=14,missing=14
					13:[f32<1] yes=17,no=18,missing=18
						17:[f28<1] yes=23,no=24,missing=24
							23:leaf=-0.0717468113
							24:leaf=0.0282473732
						18:leaf=0.168040916
					14:[f0<65] yes=19,no=20,missing=20
						19:[f27<1] yes=25,no=26,missing=26
							25:leaf=-0.0722643808
							26:leaf=-0.238063887
						20:leaf=0.0208671
booster[10]:
0:[f0<34] yes=1,no=2,missing=2
	1:leaf=0.116617456
	2:[f0<37] yes=3,no=4,missing=4
		3:[f32<1] yes=5,no=6,missing=6
			5:leaf=-0.0449580029
			6:leaf=-0.195887312
		4:[f8<1] yes=7,no=8,missing=8
			7:[f24<1] yes=9,no=10,missing=10
				9:[f0<65] yes=11,no=12,missing=12
					11:[f36<1] yes=15,no=16,missing=16
						15:[f26<1] yes=21,no=22,missing=22
							21:leaf=-0.0215760805
							22:leaf=0.0545605496
						16:[f32<1] yes=23,no=24,missing=24
							23:leaf=-0.175009817
							24:leaf=0.0388415605
					12:[f0<67] yes=17,no=18,missing=18
						17:leaf=0.218248278
						18:[f0<70] yes=25,no=26,missing=26
							25:leaf=-0.119873539
							26:leaf=0.0635991246
				10:[f32<1] yes=13,no=14,missing=14
					13:[f0<45] yes=19,no=20,missing=20
						19:leaf=-0.000826643605
						20:leaf=-0.263512075
					14:leaf=0.0737467632
			8:leaf=0.124274552
booster[11]:
0:[f34<1] yes=1,no=2,missing=2
	1:[f0<34] yes=3,no=4,missing=4
		3:leaf=0.173192278
		4:[f0<37] yes=7,no=8,missing=8
			7:leaf=-0.120124675
			8:[f25<1] yes=11,no=12,missing=12
				11:[f0<45] yes=13,no=14,missing=14
					13:[f0<40] yes=17,no=18,missing=18
						17:leaf=-0.0502202325
						18:[f0<42] yes=25,no=26,missing=26
							25:leaf=0.227298558
							26:leaf=0.05630311
					14:[f0<47] yes=19,no=20,missing=20
						19:leaf=-0.164120972
						20:[f0<50] yes=27,no=28,missing=28
							27:leaf=0.0731041431
							28:leaf=-0.0498166084
				12:[f28<1] yes=15,no=16,missing=16
					15:[f2<1] yes=21,no=22,missing=22
						21:leaf=0.0685601756
						22:leaf=0.24064146
					16:[f0<55] yes=23,no=24,missing=24
						23:leaf=-0.104923464
						24:leaf=0.00596878212
	2:[f0<49] yes=5,no=6,missing=6
		5:leaf=-0.176712126
		6:[f0<55] yes=9,no=10,missing=10
			9:leaf=0.0692933053
			10:leaf=-0.0769430697
booster[12]:
0:[f8<1] yes=1,no=2,missing=2
	1:[f34<1] yes=3,no=4,missing=4
		3:[f0<34] yes=5,no=6,missing=6
			5:leaf=0.14704743
			6:[f0<55] yes=9,no=10,missing=10
				9:[f6<1] yes=11,no=12,missing=12
					11:[f5<1] yes=15,no=16,missing=16
						15:[f0<45] yes=19,no=20,missing=20
							19:leaf=0.0343713313
							20:leaf=-0.0625470132
						16:[f0<42] yes=21,no=22,missing=22
							21:leaf=-0.00404505804
							22:leaf=-0.183970243
					12:leaf=0.118607715
				10:[f24<1] yes=13,no=14,missing=14
					13:[f0<56] yes=17,no=18,missing=18
						17:leaf=0.180248335
						18:[f27<1] yes=23,no=24,missing=24
							23:leaf=0.0774904862
							24:leaf=-0.0592507273
					14:leaf=-0.115911551
		4:[f26<1] yes=7,no=8,missing=8
			7:leaf=-0.205072597
			8:leaf=0.00310941134
	2:leaf=0.112405412
booster[13]:
0:[f8<1] yes=1,no=2,missing=2
	1:[f34<1] yes=3,no=4,missing=4
		3:[f0<34] yes=5,no=6,missing=6
			5:leaf=0.125533596
			6:[f0<37] yes=9,no=10,missing=10
				9:leaf=-0.105554037
				10:[f0<39] yes=11,no=12,missing=12
					11:leaf=0.0980006605
					12:[f0<41] yes=13,no=14,missing=14
						13:leaf=-0.126940623
						14:[f3<1] yes=15,no=16,missing=16
							15:leaf=0.0303764921
							16:leaf=-0.0167299639
		4:[f26<1] yes=7,no=8,missing=8
			7:leaf=-0.177199125
			8:leaf=0.00257587153
	2:leaf=0.0950615034
booster[14]:
0:[f0<67] yes=1,no=2,missing=2
	1:[f3<1] yes=3,no=4,missing=4
		3:[f32<1] yes=7,no=8,missing=8
			7:[f28<1] yes=11,no=12,missing=12
				11:[f4<1] yes=17,no=18,missing=18
					17:leaf=-0.154208139
					18:[f0<57] yes=27,no=28,missing=28
						27:leaf=0.127677754
						28:leaf=-0.106000923
				12:[f0<59] yes=19,no=20,missing=20
					19:leaf=0.13383761
					20:leaf=-0.0176465344
			8:[f27<1] yes=13,no=14,missing=14
				13:[f4<1] yes=21,no=22,missing=22
					21:leaf=0.209798262
					22:leaf=0.0489666834
				14:[f28<1] yes=23,no=24,missing=24
					23:leaf=0.0597957298
					24:leaf=-0.0746644884
		4:[f0<51] yes=9,no=10,missing=10
			9:[f5<1] yes=15,no=16,missing=16
				15:[f0<47] yes=25,no=26,missing=26
					25:[f0<46] yes=29,no=30,missing=30
						29:[f0<44] yes=33,no=34,missing=34
							33:leaf=-0.0133436723
							34:leaf=0.127214372
						30:leaf=-0.124158822
					26:[f28<1] yes=31,no=32,missing=32
						31:leaf=-0.0416069999
						32:leaf=0.155688509
				16:leaf=-0.112531401
			10:leaf=-0.133123636
	2:[f28<1] yes=5,no=6,missing=6
		5:leaf=0.141349718
		6:leaf=-0.250889331
booster[15]:
0:[f34<1] yes=1,no=2,missing=2
	1:[f0<34] yes=3,no=4,missing=4
		3:leaf=0.109446973
		4:[f0<37] yes=7,no=8,missing=8
			7:leaf=-0.083496809
			8:[f28<1] yes=11,no=12,missing=12
				11:[f25<1] yes=13,no=14,missing=14
					13:[f0<46] yes=17,no=18,missing=18
						17:[f0<40] yes=25,no=26,missing=26
							25:leaf=-0.0529981516
							26:leaf=0.165221885
						18:[f4<1] yes=27,no=28,missing=28
							27:leaf=-0.133358106
							28:leaf=0.00586418668
					14:[f2<1] yes=19,no=20,missing=20
						19:leaf=0.0501971357
						20:leaf=0.192785606
				12:[f4<1] yes=15,no=16,missing=16
					15:[f35<1] yes=21,no=22,missing=22
						21:[f0<53] yes=29,no=30,missing=30
							29:leaf=0.174968943
							30:leaf=-0.0209685564
						22:leaf=-0.0746112093
					16:[f0<54] yes=23,no=24,missing=24
						23:[f0<44] yes=31,no=32,missing=32
							31:leaf=0.026840454
							32:leaf=-0.174021319
						24:[f26<1] yes=33,no=34,missing=34
							33:leaf=-0.130675375
							34:leaf=0.143026456
	2:[f0<49] yes=5,no=6,missing=6
		5:leaf=-0.130870193
		6:[f0<53] yes=9,no=10,missing=10
			9:leaf=0.0491315722
			10:leaf=-0.0217803456
booster[16]:
0:[f0<67] yes=1,no=2,missing=2
	1:[f0<61] yes=3,no=4,missing=4
		3:[f5<1] yes=5,no=6,missing=6
			5:[f0<51] yes=9,no=10,missing=10
				9:[f0<47] yes=15,no=16,missing=16
					15:[f0<46] yes=21,no=22,missing=22
						21:[f6<1] yes=29,no=30,missing=30
							29:leaf=0.0422013402
							30:leaf=-0.0676131174
						22:leaf=-0.102192141
					16:[f32<1] yes=23,no=24,missing=24
						23:leaf=0.159715131
						24:[f26<1] yes=31,no=32,missing=32
							31:leaf=0.0809019282
							32:leaf=-0.0335640311
				10:[f0<54] yes=17,no=18,missing=18
					17:[f32<1] yes=25,no=26,missing=26
						25:leaf=-0.192931265
						26:leaf=-0.0319631211
					18:[f0<56] yes=27,no=28,missing=28
						27:[f0<55] yes=33,no=34,missing=34
							33:leaf=-0.0128516685
							34:leaf=0.168154776
						28:[f36<1] yes=35,no=36,missing=36
							35:leaf=-0.0767325386
							36:leaf=0.0178137068
			6:[f0<42] yes=11,no=12,missing=12
				11:leaf=0.00658616936
				12:leaf=-0.170512214
		4:[f35<1] yes=7,no=8,missing=8
			7:[f28<1] yes=13,no=14,missing=14
				13:leaf=-0.100140028
				14:[f0<65] yes=19,no=20,missing=20
					19:leaf=-0.043874979
					20:leaf=0.106161617
			8:leaf=0.210188836
	2:leaf=-0.0687476322
booster[17]:
0:[f36<1] yes=1,no=2,missing=2
	1:[f23<1] yes=3,no=4,missing=4
		3:leaf=-0.102811471
		4:[f33<1] yes=7,no=8,missing=8
			7:[f0<37] yes=13,no=14,missing=14
				13:leaf=-0.0698892698
				14:[f0<67] yes=21,no=22,missing=22
					21:[f0<55] yes=23,no=24,missing=24
						23:[f0<50] yes=25,no=26,missing=26
							25:leaf=0.0563742481
							26:leaf=-0.0794132352
						24:[f25<1] yes=27,no=28,missing=28
							27:leaf=0.11282067
							28:leaf=0.00173600495
					22:leaf=-0.0712563768
			8:[f25<1] yes=15,no=16,missing=16
				15:leaf=0.175523922
				16:leaf=-0.0211087465
	2:[f23<1] yes=5,no=6,missing=6
		5:[f32<1] yes=9,no=10,missing=10
			9:[f31<1] yes=17,no=18,missing=18
				17:leaf=-0.0678880662
				18:leaf=0.090018861
			10:leaf=0.119676925
		6:[f0<65] yes=11,no=12,missing=12
			11:[f4<1] yes=19,no=20,missing=20
				19:leaf=-0.170667171
				20:leaf=-0.0118178781
			12:leaf=-0.00105784845
booster[18]:
0:[f3<1] yes=1,no=2,missing=2
	1:[f0<64] yes=3,no=4,missing=4
		3:[f26<1] yes=7,no=8,missing=8
			7:[f32<1] yes=15,no=16,missing=16
				15:[f0<58] yes=23,no=24,missing=24
					23:leaf=-0.115786016
					24:leaf=0.0215164758
				16:[f28<1] yes=25,no=26,missing=26
					25:leaf=0.110321678
					26:leaf=-0.0112182572
			8:[f28<1] yes=17,no=18,missing=18
				17:leaf=-0.0164717231
				18:leaf=0.200120762
		4:[f26<1] yes=9,no=10,missing=10
			9:[f28<1] yes=19,no=20,missing=20
				19:leaf=0.16980581
				20:leaf=-0.061501652
			10:leaf=-0.124583893
	2:[f0<50] yes=5,no=6,missing=6
		5:[f5<1] yes=11,no=12,missing=12
			11:[f27<1] yes=21,no=22,missing=22
				21:[f0<47] yes=27,no=28,missing=28
					27:[f0<46] yes=31,no=32,missing=32
						31:[f0<42] yes=35,no=36,missing=36
							35:leaf=-0.0198841635
							36:leaf=0.0790447593
						32:leaf=-0.0579682067
					28:leaf=0.137155637
				22:[f0<45] yes=29,no=30,missing=30
					29:[f0<38] yes=33,no=34,missing=34
						33:leaf=-0.0351977833
						34:leaf=0.0847676098
					30:leaf=-0.134909824
			12:leaf=-0.090204902
		6:[f26<1] yes=13,no=14,missing=14
			13:leaf=0.0655959398
			14:leaf=-0.197615847
booster[19]:
0:[f3<1] yes=1,no=2,missing=2
	1:[f0<67] yes=3,no=4,missing=4
		3:[f5<1] yes=7,no=8,missing=8
			7:[f0<59] yes=13,no=14,missing=14
				13:[f26<1] yes=19,no=20,missing=20
					19:[f0<53] yes=27,no=28,missing=28
						27:leaf=0.0534753911
						28:[f32<1] yes=33,no=34,missing=34
							33:leaf=-0.00913558993
							34:leaf=-0.123368844
					20:leaf=0.168345004
				14:[f32<1] yes=21,no=22,missing=22
					21:leaf=-0.130171373
					22:leaf=0.0854331702
			8:leaf=0.109027691
		4:leaf=-0.0539578162
	2:[f6<1] yes=5,no=6,missing=6
		5:[f32<1] yes=9,no=10,missing=10
			9:[f0<45] yes=15,no=16,missing=16
				15:[f36<1] yes=23,no=24,missing=24
					23:[f28<1] yes=29,no=30,missing=30
						29:[f26<1] yes=35,no=36,missing=36
							35:leaf=-0.117615454
							36:leaf=0.0572650395
						30:leaf=0.0651629195
					24:leaf=0.133712888
				16:[f26<1] yes=25,no=26,missing=26
					25:leaf=0.0512114763
					26:[f31<1] yes=31,no=32,missing=32
						31:leaf=-0.00901338458
						32:leaf=-0.115592271
			10:[f0<48] yes=17,no=18,missing=18
				17:leaf=-0.156884536
				18:leaf=-0.0341025703
		6:[f32<1] yes=11,no=12,missing=12
			11:leaf=-0.0778893083
			12:leaf=0.186844155
booster[20]:
0:[f25<1] yes=1,no=2,missing=2
	1:[f31<1] yes=3,no=4,missing=4
		3:[f36<1] yes=7,no=8,missing=8
			7:[f23<1] yes=15,no=16,missing=16
				15:leaf=-0.0611128435
				16:[f0<59] yes=23,no=24,missing=24
					23:[f32<1] yes=29,no=30,missing=30
						29:[f34<1] yes=35,no=36,missing=36
							35:leaf=0.180731744
							36:leaf=-0.0135174869
						30:[f0<47] yes=37,no=38,missing=38
							37:leaf=0.0788550228
							38:leaf=-0.0929830894
					24:leaf=0.1533636
			8:[f0<59] yes=17,no=18,missing=18
				17:[f0<47] yes=25,no=26,missing=26
					25:leaf=-0.0471841991
					26:leaf=0.0627554134
				18:leaf=-0.148369536
		4:[f0<40] yes=9,no=10,missing=10
			9:leaf=-0.169494867
			10:[f0<45] yes=19,no=20,missing=20
				19:leaf=0.105812855
				20:[f0<54] yes=27,no=28,missing=28
					27:[f0<48] yes=31,no=32,missing=32
						31:leaf=-0.0278624482
						32:leaf=-0.134075746
					28:[f0<59] yes=33,no=34,missing=34
						33:leaf=0.0988521576
						34:leaf=-0.067655012
	2:[f31<1] yes=5,no=6,missing=6
		5:[f0<44] yes=11,no=12,missing=12
			11:leaf=-0.154072419
			12:[f0<56] yes=21,no=22,missing=22
				21:leaf=0.0906643867
				22:leaf=-0.029590752
		6:[f0<51] yes=13,no=14,missing=14
			13:leaf=0.146752253
			14:leaf=0.0132345408
booster[21]:
0:[f3<1] yes=1,no=2,missing=2
	1:[f0<67] yes=3,no=4,missing=4
		3:[f0<52] yes=7,no=8,missing=8
			7:leaf=-0.0463686585
			8:[f32<1] yes=11,no=12,missing=12
				11:[f28<1] yes=15,no=16,missing=16
					15:[f0<62] yes=23,no=24,missing=24
						23:leaf=0.00599458208
						24:leaf=-0.102837801
					16:[f0<58] yes=25,no=26,missing=26
						25:leaf=-0.0188339539
						26:leaf=0.0885973722
				12:[f27<1] yes=17,no=18,missing=18
					17:leaf=0.194925204
					18:[f0<54] yes=27,no=28,missing=28
						27:leaf=0.0202655494
						28:leaf=-0.0493510328
		4:leaf=-0.0433669798
	2:[f0<51] yes=5,no=6,missing=6
		5:[f5<1] yes=9,no=10,missing=10
			9:[f27<1] yes=13,no=14,missing=14
				13:[f0<47] yes=19,no=20,missing=20
					19:[f0<46] yes=29,no=30,missing=30
						29:[f0<42] yes=35,no=36,missing=36
							35:leaf=-0.01647163
							36:leaf=0.0642360896
						30:leaf=-0.0536818244
					20:[f0<50] yes=31,no=32,missing=32
						31:leaf=0.128779367
						32:leaf=-0.0137756104
				14:[f0<45] yes=21,no=22,missing=22
					21:[f35<1] yes=33,no=34,missing=34
						33:leaf=-0.0329276435
						34:leaf=0.0689867511
					22:leaf=-0.118795648
			10:leaf=-0.0756901801
		6:leaf=-0.110708348
booster[22]:
0:[f0<66] yes=1,no=2,missing=2
	1:[f0<64] yes=3,no=4,missing=4
		3:[f0<61] yes=7,no=8,missing=8
			7:[f35<1] yes=9,no=10,missing=10
				9:[f23<1] yes=13,no=14,missing=14
					13:[f3<1] yes=17,no=18,missing=18
						17:leaf=0.130940646
						18:leaf=0.00395089388
					14:[f36<1] yes=19,no=20,missing=20
						19:[f0<51] yes=21,no=22,missing=22
							21:leaf=0.0494739376
							22:leaf=-0.0313501321
						20:[f26<1] yes=23,no=24,missing=24
							23:leaf=-0.185354084
							24:leaf=-0.0177276675
				10:[f0<42] yes=15,no=16,missing=16
					15:leaf=0.0208599903
					16:leaf=-0.149692953
			8:[f27<1] yes=11,no=12,missing=12
				11:leaf=0.12747851
				12:leaf=0.01756992
		4:leaf=-0.100813784
	2:[f28<1] yes=5,no=6,missing=6
		5:leaf=0.13880454
		6:leaf=-0.0782019049
booster[23]:
0:[f34<1] yes=1,no=2,missing=2
	1:[f0<34] yes=3,no=4,missing=4
		3:leaf=0.113043644
		4:[f26<1] yes=7,no=8,missing=8
			7:[f0<65] yes=9,no=10,missing=10
				9:[f0<39] yes=13,no=14,missing=14
					13:leaf=0.115239292
					14:[f0<42] yes=19,no=20,missing=20
						19:leaf=-0.214415133
						20:[f0<62] yes=25,no=26,missing=26
							25:leaf=0.0431295931
							26:leaf=-0.123706169
				10:leaf=0.15477185
			8:[f31<1] yes=11,no=12,missing=12
				11:[f35<1] yes=15,no=16,missing=16
					15:[f0<52] yes=21,no=22,missing=22
						21:[f0<47] yes=27,no=28,missing=28
							27:leaf=0.10694667
							28:leaf=-0.081400685
						22:leaf=0.127527222
					16:leaf=-0.113640353
				12:[f35<1] yes=17,no=18,missing=18
					17:[f0<59] yes=23,no=24,missing=24
						23:[f0<47] yes=29,no=30,missing=30
							29:leaf=-0.12887089
							30:leaf=0.0423887745
						24:leaf=-0.174223572
					18:leaf=0.0147565482
	2:[f0<49] yes=5,no=6,missing=6
		5:leaf=-0.114027016
		6:leaf=0.0165803879
booster[24]:
0:[f0<67] yes=1,no=2,missing=2
	1:[f0<61] yes=3,no=4,missing=4
		3:[f5<1] yes=5,no=6,missing=6
			5:[f0<51] yes=9,no=10,missing=10
				9:[f0<47] yes=15,no=16,missing=16
					15:[f0<46] yes=19,no=20,missing=20
						19:[f0<44] yes=27,no=28,missing=28
							27:leaf=-0.0153354751
							28:leaf=0.0741741136
						20:leaf=-0.0856028125
					16:[f32<1] yes=21,no=22,missing=22
						21:leaf=0.127886325
						22:[f26<1] yes=29,no=30,missing=30
							29:leaf=0.0554723665
							30:leaf=-0.0258121956
				10:[f0<55] yes=17,no=18,missing=18
					17:[f32<1] yes=23,no=24,missing=24
						23:leaf=-0.127611324
						24:leaf=-0.0284016598
					18:[f0<56] yes=25,no=26,missing=26
						25:leaf=0.133114755
						26:[f0<58] yes=31,no=32,missing=32
							31:leaf=-0.0773421824
							32:leaf=-0.0237674415
			6:[f31<1] yes=11,no=12,missing=12
				11:leaf=-0.134433419
				12:leaf=-0.0142005496
		4:[f35<1] yes=7,no=8,missing=8
			7:[f0<65] yes=13,no=14,missing=14
				13:leaf=-0.0585465506
				14:leaf=0.0550149865
			8:leaf=0.183884412
	2:leaf=-0.0582187921
booster[25]:
0:[f3<1] yes=1,no=2,missing=2
	1:[f0<67] yes=3,no=4,missing=4
		3:[f0<52] yes=7,no=8,missing=8
			7:leaf=-0.0410150215
			8:[f5<1] yes=13,no=14,missing=14
				13:[f0<56] yes=19,no=20,missing=20
					19:[f27<1] yes=25,no=26,missing=26
						25:leaf=0.173106045
						26:leaf=-0.00972736627
					20:[f32<1] yes=27,no=28,missing=28
						27:[f0<62] yes=33,no=34,missing=34
							33:leaf=-0.00106435723
							34:leaf=-0.103184365
						28:leaf=0.0144775342
				14:leaf=0.114348844
		4:leaf=-0.0473716408
	2:[f6<1] yes=5,no=6,missing=6
		5:[f32<1] yes=9,no=10,missing=10
			9:[f0<45] yes=15,no=16,missing=16
				15:[f35<1] yes=21,no=22,missing=22
					21:[f0<39] yes=29,no=30,missing=30
						29:[f0<35] yes=35,no=36,missing=36
							35:leaf=0.00807703659
							36:leaf=0.150745064
						30:[f25<1] yes=37,no=38,missing=38
							37:leaf=0.122780688
							38:leaf=-0.107531674
					22:leaf=-0.0307564531
				16:[f26<1] yes=23,no=24,missing=24
					23:leaf=0.0327521525
					24:[f31<1] yes=31,no=32,missing=32
						31:leaf=-0.0280897841
						32:leaf=-0.101292223
			10:[f0<48] yes=17,no=18,missing=18
				17:leaf=-0.134276628
				18:leaf=-0.0159148965
		6:[f32<1] yes=11,no=12,missing=12
			11:leaf=-0.0664920211
			12:leaf=0.153631791
booster[26]:
0:[f0<61] yes=1,no=2,missing=2
	1:[f0<51] yes=3,no=4,missing=4
		3:[f5<1] yes=7,no=8,missing=8
			7:[f0<47] yes=13,no=14,missing=14
				13:[f0<46] yes=17,no=18,missing=18
					17:[f0<44] yes=23,no=24,missing=24
						23:[f28<1] yes=29,no=30,missing=30
							29:leaf=-0.0609458201
							30:leaf=0.0502570942
						24:leaf=0.0633996576
					18:leaf=-0.071288012
				14:[f0<50] yes=19,no=20,missing=20
					19:[f26<1] yes=25,no=26,missing=26
						25:leaf=0.0438123383
						26:leaf=0.127427116
					20:leaf=0.00846529193
			8:leaf=-0.0715222806
		4:[f23<1] yes=9,no=10,missing=10
			9:leaf=0.0234779753
			10:[f0<54] yes=15,no=16,missing=16
				15:leaf=-0.127686784
				16:[f0<56] yes=21,no=22,missing=22
					21:leaf=0.0653416589
					22:[f26<1] yes=27,no=28,missing=28
						27:leaf=-0.111710444
						28:leaf=-0.0221480504
	2:[f0<64] yes=5,no=6,missing=6
		5:leaf=0.0981853157
		6:[f28<1] yes=11,no=12,missing=12
			11:leaf=0.0713533461
			12:leaf=-0.0921444297
booster[27]:
0:[f34<1] yes=1,no=2,missing=2
	1:[f0<34] yes=3,no=4,missing=4
		3:leaf=0.106196918
		4:[f0<65] yes=7,no=8,missing=8
			7:[f6<1] yes=9,no=10,missing=10
				9:[f36<1] yes=13,no=14,missing=14
					13:[f0<62] yes=15,no=16,missing=16
						15:[f0<55] yes=19,no=20,missing=20
							19:leaf=-0.0196439847
							20:leaf=0.0823671669
						16:leaf=-0.109804377
					14:[f0<46] yes=17,no=18,missing=18
						17:leaf=0.0397462025
						18:[f0<57] yes=21,no=22,missing=22
							21:leaf=-0.153908283
							22:leaf=-0.0351290926
				10:leaf=0.046610456
			8:[f26<1] yes=11,no=12,missing=12
				11:leaf=0.140114263
				12:leaf=-0.0574003756
	2:[f0<49] yes=5,no=6,missing=6
		5:leaf=-0.109347649
		6:leaf=0.0229361579
booster[28]:
0:[f0<67] yes=1,no=2,missing=2
	1:[f0<65] yes=3,no=4,missing=4
		3:[f0<51] yes=5,no=6,missing=6
			5:[f0<49] yes=7,no=8,missing=8
				7:[f6<1] yes=11,no=12,missing=12
					11:[f0<45] yes=15,no=16,missing=16
						15:[f0<41] yes=21,no=22,missing=22
							21:leaf=-0.0389076918
							22:leaf=0.117070846
						16:[f28<1] yes=23,no=24,missing=24
							23:leaf=-0.00278422888
							24:leaf=-0.133702487
					12:[f32<1] yes=17,no=18,missing=18
						17:leaf=-0.0634378642
						18:leaf=0.136584163
				8:leaf=0.08371263
			6:[f23<1] yes=9,no=10,missing=10
				9:leaf=0.049832847
				10:[f0<53] yes=13,no=14,missing=14
					13:leaf=-0.115391366
					14:[f26<1] yes=19,no=20,missing=20
						19:[f0<62] yes=25,no=26,missing=26
							25:leaf=-0.0177182183
							26:leaf=-0.151348233
						20:[f28<1] yes=27,no=28,missing=28
							27:leaf=-0.00679864176
							28:leaf=0.106754452
		4:leaf=0.0807434767
	2:leaf=-0.0551596992
booster[29]:
0:[f34<1] yes=1,no=2,missing=2
	1:[f0<34] yes=3,no=4,missing=4
		3:leaf=0.0987796634
		4:[f24<1] yes=7,no=8,missing=8
			7:[f0<65] yes=9,no=10,missing=10
				9:[f36<1] yes=13,no=14,missing=14
					13:[f0<50] yes=17,no=18,missing=18
						17:[f0<47] yes=21,no=22,missing=22
							21:leaf=-0.00687722536
							22:leaf=0.0972697511
						18:[f0<52] yes=23,no=24,missing=24
							23:leaf=-0.105961643
							24:leaf=0.0126478458
					14:[f32<1] yes=19,no=20,missing=20
						19:leaf=-0.105855636
						20:leaf=-0.0140292151
				10:[f26<1] yes=15,no=16,missing=16
					15:leaf=0.144502923
					16:leaf=-0.0241782889
			8:[f32<1] yes=11,no=12,missing=12
				11:leaf=-0.119352594
				12:leaf=0.0165674891
	2:[f2<1] yes=5,no=6,missing=6
		5:leaf=-0.0715835989
		6:leaf=0.0110322461
booster[30]:
0:[f0<67] yes=1,no=2,missing=2
	1:[f0<61] yes=3,no=4,missing=4
		3:[f35<1] yes=5,no=6,missing=6
			5:[f0<51] yes=9,no=10,missing=10
				9:[f0<49] yes=15,no=16,missing=16
					15:[f27<1] yes=19,no=20,missing=20
						19:[f0<36] yes=23,no=24,missing=24
							23:leaf=-0.021909317
							24:leaf=0.0335494131
						20:leaf=-0.039037779
					16:leaf=0.0855948627
				10:[f23<1] yes=17,no=18,missing=18
					17:leaf=0.0421339422
					18:[f28<1] yes=21,no=22,missing=22
						21:[f0<57] yes=25,no=26,missing=26
							25:leaf=0.0346610621
							26:leaf=-0.0548860356
						22:leaf=-0.105611973
			6:[f0<42] yes=11,no=12,missing=12
				11:leaf=0.0334922858
				12:leaf=-0.134232536
		4:[f35<1] yes=7,no=8,missing=8
			7:[f25<1] yes=13,no=14,missing=14
				13:leaf=-0.0439286977
				14:leaf=0.0528520942
			8:leaf=0.147087708
	2:leaf=-0.0601001494
booster[31]:
0:[f0<36] yes=1,no=2,missing=2
	1:leaf=-0.0488928966
	2:[f0<39] yes=3,no=4,missing=4
		3:[f0<37] yes=5,no=6,missing=6
			5:leaf=0.000605634763
			6:leaf=0.0765073225
		4:[f3<1] yes=7,no=8,missing=8
			7:[f0<64] yes=9,no=10,missing=10
				9:[f0<61] yes=13,no=14,missing=14
					13:[f4<1] yes=21,no=22,missing=22
						21:[f24<1] yes=27,no=28,missing=28
							27:leaf=-0.13483952
							28:leaf=0.0356272273
						22:[f0<57] yes=29,no=30,missing=30
							29:leaf=0.117857218
							30:leaf=-0.0610059574
					14:leaf=0.0921045393
				10:[f28<1] yes=15,no=16,missing=16
					15:leaf=0.0481986664
					16:leaf=-0.088694483
			8:[f0<50] yes=11,no=12,missing=12
				11:[f26<1] yes=17,no=18,missing=18
					17:[f0<42] yes=23,no=24,missing=24
						23:leaf=-0.179401547
						24:[f25<1] yes=31,no=32,missing=32
							31:leaf=-0.0901548266
							32:leaf=0.0897388756
					18:[f0<42] yes=25,no=26,missing=26
						25:leaf=0.172217295
						26:[f32<1] yes=33,no=34,missing=34
							33:leaf=-0.0624560788
							34:leaf=0.0978029221
				12:[f26<1] yes=19,no=20,missing=20
					19:leaf=0.042700626
					20:leaf=-0.159140781
booster[32]:
0:[f0<67] yes=1,no=2,missing=2
	1:[f0<65] yes=3,no=4,missing=4
		3:[f30<1] yes=5,no=6,missing=6
			5:[f0<36] yes=7,no=8,missing=8
				7:leaf=-0.120028682
				8:[f0<51] yes=9,no=10,missing=10
					9:[f5<1] yes=11,no=12,missing=12
						11:[f23<1] yes=15,no=16,missing=16
							15:leaf=-0.0213439409
							16:leaf=0.0559674762
						12:leaf=-0.0716503039
					10:[f23<1] yes=13,no=14,missing=14
						13:leaf=0.045130007
						14:[f31<1] yes=17,no=18,missing=18
							17:leaf=-0.0886035934
							18:leaf=-0.00270447508
			6:leaf=0.0571410842
		4:leaf=0.0621203259
	2:leaf=-0.0469352081
booster[33]:
0:[f3<1] yes=1,no=2,missing=2
	1:[f0<64] yes=3,no=4,missing=4
		3:[f0<52] yes=7,no=8,missing=8
			7:leaf=-0.035157986
			8:[f26<1] yes=15,no=16,missing=16
				15:[f36<1] yes=21,no=22,missing=22
					21:[f28<1] yes=29,no=30,missing=30
						29:leaf=0.0335369334
						30:leaf=-0.123332225
					22:leaf=0.095305793
				16:[f28<1] yes=23,no=24,missing=24
					23:leaf=-0.0132997772
					24:leaf=0.19859688
		4:[f26<1] yes=9,no=10,missing=10
			9:leaf=0.039303679
			10:leaf=-0.0870252103
	2:[f0<50] yes=5,no=6,missing=6
		5:[f6<1] yes=11,no=12,missing=12
			11:[f32<1] yes=17,no=18,missing=18
				17:[f36<1] yes=25,no=26,missing=26
					25:[f33<1] yes=31,no=32,missing=32
						31:[f25<1] yes=33,no=34,missing=34
							33:leaf=-0.0835227519
							34:leaf=0.0233500805
						32:leaf=0.0486820638
					26:leaf=0.120637022
				18:[f26<1] yes=27,no=28,missing=28
					27:leaf=-0.132895708
					28:leaf=-0.0150991222
			12:[f32<1] yes=19,no=20,missing=20
				19:leaf=-0.0402805135
				20:leaf=0.120716937
		6:[f26<1] yes=13,no=14,missing=14
			13:leaf=0.035107296
			14:leaf=-0.141222849
booster[34]:
0:[f0<34] yes=1,no=2,missing=2
	1:leaf=0.0451848172
	2:[f0<37] yes=3,no=4,missing=4
		3:leaf=-0.0768480822
		4:[f28<1] yes=5,no=6,missing=6
			5:[f33<1] yes=7,no=8,missing=8
				7:[f0<46] yes=11,no=12,missing=12
					11:leaf=0.125005111
					12:[f26<1] yes=17,no=18,missing=18
						17:[f2<1] yes=25,no=26,missing=26
							25:leaf=-0.0420859009
							26:leaf=0.112647563
						18:[f32<1] yes=27,no=28,missing=28
							27:leaf=-0.0899621248
							28:leaf=-0.00211860123
				8:leaf=-0.117590062
			6:[f26<1] yes=9,no=10,missing=10
				9:[f4<1] yes=13,no=14,missing=14
					13:[f0<57] yes=19,no=20,missing=20
						19:leaf=-0.0826355442
						20:leaf=0.110062905
					14:[f0<50] yes=21,no=22,missing=22
						21:leaf=-0.0243781563
						22:leaf=-0.129401445
				10:[f0<48] yes=15,no=16,missing=16
					15:leaf=-0.0406399108
					16:[f32<1] yes=23,no=24,missing=24
						23:leaf=0.105814166
						24:leaf=0.00158011855
booster[35]:
0:[f36<1] yes=1,no=2,missing=2
	1:[f23<1] yes=3,no=4,missing=4
		3:leaf=-0.101639286
		4:[f6<1] yes=7,no=8,missing=8
			7:[f0<47] yes=13,no=14,missing=14
				13:[f33<1] yes=17,no=18,missing=18
					17:[f0<43] yes=21,no=22,missing=22
						21:[f28<1] yes=27,no=28,missing=28
							27:leaf=-0.0737855136
							28:leaf=0.0865950957
						22:leaf=-0.216937214
					18:leaf=0.0864233226
				14:[f0<50] yes=19,no=20,missing=20
					19:[f32<1] yes=23,no=24,missing=24
						23:leaf=0.0973208547
						24:leaf=0.0260667503
					20:[f0<52] yes=25,no=26,missing=26
						25:leaf=-0.0704713538
						26:[f25<1] yes=29,no=30,missing=30
							29:leaf=0.0788056403
							30:leaf=-0.0280796755
			8:leaf=0.104975425
	2:[f23<1] yes=5,no=6,missing=6
		5:[f35<1] yes=9,no=10,missing=10
			9:leaf=0.0622052848
			10:leaf=-0.0156610981
		6:[f0<65] yes=11,no=12,missing=12
			11:[f4<1] yes=15,no=16,missing=16
				15:leaf=-0.129339203
				16:leaf=-0.00136879052
			12:leaf=0.0186205488
booster[36]:
0:[f25<1] yes=1,no=2,missing=2
	1:[f0<40] yes=3,no=4,missing=4
		3:[f0<34] yes=7,no=8,missing=8
			7:leaf=0.0139136137
			8:leaf=-0.103311725
		4:[f0<42] yes=9,no=10,missing=10
			9:leaf=0.200009704
			10:[f0<52] yes=13,no=14,missing=14
				13:[f0<50] yes=17,no=18,missing=18
					17:[f0<47] yes=21,no=22,missing=22
						21:[f28<1] yes=27,no=28,missing=28
							27:leaf=0.0336509198
							28:leaf=-0.129634991
						22:[f4<1] yes=29,no=30,missing=30
							29:leaf=0.000964487961
							30:leaf=0.0511782318
					18:leaf=-0.12957707
				14:[f0<59] yes=19,no=20,missing=20
					19:[f4<1] yes=23,no=24,missing=24
						23:leaf=-0.0294218566
						24:[f0<57] yes=31,no=32,missing=32
							31:leaf=0.135983273
							32:leaf=-0.034967225
					20:[f32<1] yes=25,no=26,missing=26
						25:[f4<1] yes=33,no=34,missing=34
							33:leaf=-0.0122464681
							34:leaf=-0.159296274
						26:leaf=0.0444368869
	2:[f0<42] yes=5,no=6,missing=6
		5:leaf=-0.0539764985
		6:[f28<1] yes=11,no=12,missing=12
			11:leaf=0.122148268
			12:[f0<51] yes=15,no=16,missing=16
				15:leaf=0.05141728
				16:leaf=-0.0600914806
booster[37]:
0:[f0<51] yes=1,no=2,missing=2
	1:[f0<49] yes=3,no=4,missing=4
		3:[f6<1] yes=7,no=8,missing=8
			7:[f31<1] yes=13,no=14,missing=14
				13:[f0<41] yes=19,no=20,missing=20
					19:leaf=-0.12447203
					20:[f0<46] yes=25,no=26,missing=26
						25:leaf=0.108933657
						26:leaf=-0.103454128
				14:[f0<39] yes=21,no=22,missing=22
					21:leaf=0.104290582
					22:[f0<44] yes=27,no=28,missing=28
						27:leaf=-0.0369820409
						28:leaf=0.0206264202
			8:[f32<1] yes=15,no=16,missing=16
				15:leaf=-0.0388793238
				16:leaf=0.123704605
		4:leaf=0.083085224
	2:[f0<55] yes=5,no=6,missing=6
		5:[f32<1] yes=9,no=10,missing=10
			9:leaf=-0.124215454
			10:leaf=-0.0174910985
		6:[f0<67] yes=11,no=12,missing=12
			11:[f5<1] yes=17,no=18,missing=18
				17:[f0<56] yes=23,no=24,missing=24
					23:leaf=0.0705423132
					24:[f27<1] yes=29,no=30,missing=30
						29:[f36<1] yes=31,no=32,missing=32
							31:leaf=0.0406064689
							32:leaf=-0.0646076947
						30:leaf=-0.0663765296
				18:leaf=0.0835823938
			12:leaf=-0.0512912646
booster[38]:
0:[f30<1] yes=1,no=2,missing=2
	1:[f0<66] yes=3,no=4,missing=4
		3:[f0<51] yes=5,no=6,missing=6
			5:[f0<44] yes=7,no=8,missing=8
				7:[f36<1] yes=11,no=12,missing=12
					11:[f0<41] yes=17,no=18,missing=18
						17:[f26<1] yes=23,no=24,missing=24
							23:leaf=0.0521181412
							24:leaf=-0.0960093662
						18:leaf=0.0307456385
					12:leaf=-0.0650498942
				8:[f25<1] yes=13,no=14,missing=14
					13:[f36<1] yes=19,no=20,missing=20
						19:[f0<49] yes=25,no=26,missing=26
							25:leaf=-0.066006951
							26:leaf=0.0517937541
						20:leaf=0.0897433162
					14:leaf=0.099211216
			6:[f23<1] yes=9,no=10,missing=10
				9:leaf=0.0417042933
				10:[f36<1] yes=15,no=16,missing=16
					15:[f0<55] yes=21,no=22,missing=22
						21:[f27<1] yes=27,no=28,missing=28
							27:leaf=-0.104095422
							28:leaf=-0.00915175304
						22:[f26<1] yes=29,no=30,missing=30
							29:leaf=-0.0276531968
							30:leaf=0.0656520948
					16:leaf=-0.123498641
		4:leaf=0.0454161242
	2:leaf=0.0472695492
booster[39]:
0:[f0<39] yes=1,no=2,missing=2
	1:[f26<1] yes=3,no=4,missing=4
		3:[f36<1] yes=7,no=8,missing=8
			7:leaf=0.137164637
			8:leaf=-0.0013583129
		4:leaf=-0.0466306172
	2:[f0<44] yes=5,no=6,missing=6
		5:[f26<1] yes=9,no=10,missing=10
			9:leaf=-0.137822345
			10:leaf=0.0782158822
		6:[f0<51] yes=11,no=12,missing=12
			11:[f25<1] yes=13,no=14,missing=14
				13:[f36<1] yes=17,no=18,missing=18
					17:[f0<47] yes=21,no=22,missing=22
						21:leaf=-0.0815758705
						22:[f32<1] yes=27,no=28,missing=28
							27:leaf=0.0659433156
							28:leaf=-0.0461750329
					18:leaf=0.0754249841
				14:leaf=0.0846656263
			12:[f3<1] yes=15,no=16,missing=16
				15:[f27<1] yes=19,no=20,missing=20
					19:[f0<64] yes=23,no=24,missing=24
						23:[f32<1] yes=29,no=30,missing=30
							29:leaf=0.0206751935
							30:leaf=0.093181856
						24:[f28<1] yes=31,no=32,missing=32
							31:leaf=0.0226968788
							32:leaf=-0.0854028091
					20:[f0<63] yes=25,no=26,missing=26
						25:[f4<1] yes=33,no=34,missing=34
							33:leaf=-0.018949734
							34:leaf=-0.0740299672
						26:leaf=0.0309806392
				16:leaf=-0.0865510553
booster[40]:
0:[f0<67] yes=1,no=2,missing=2
	1:[f0<65] yes=3,no=4,missing=4
		3:[f30<1] yes=5,no=6,missing=6
			5:[f0<51] yes=7,no=8,missing=8
				7:[f5<1] yes=9,no=10,missing=10
					9:[f0<44] yes=13,no=14,missing=14
						13:[f28<1] yes=17,no=18,missing=18
							17:leaf=-0.0471344627
							18:leaf=0.0190299191
						14:[f27<1] yes=19,no=20,missing=20
							19:leaf=0.0691874921
							20:leaf=-0.017199371
					10:leaf=-0.05753484
				8:[f23<1] yes=11,no=12,missing=12
					11:leaf=0.0337433927
					12:[f31<1] yes=15,no=16,missing=16
						15:leaf=-0.0738103539
						16:[f25<1] yes=21,no=22,missing=22
							21:leaf=0.0121441009
							22:leaf=-0.0325816944
			6:leaf=0.0587254763
		4:leaf=0.0675077364
	2:leaf=-0.0502299443
booster[41]:
0:[f0<39] yes=1,no=2,missing=2
	1:[f26<1] yes=3,no=4,missing=4
		3:[f31<1] yes=7,no=8,missing=8
			7:leaf=-0.0191479586
			8:leaf=0.133959085
		4:leaf=-0.0347430147
	2:[f3<1] yes=5,no=6,missing=6
		5:[f4<1] yes=9,no=10,missing=10
			9:[f0<58] yes=13,no=14,missing=14
				13:leaf=-0.104158096
				14:[f0<64] yes=21,no=22,missing=22
					21:leaf=0.098839514
					22:leaf=-0.0254702438
			10:[f0<57] yes=15,no=16,missing=16
				15:[f28<1] yes=23,no=24,missing=24
					23:leaf=0.1241697
					24:leaf=0.0158732608
				16:[f31<1] yes=25,no=26,missing=26
					25:[f25<1] yes=31,no=32,missing=32
						31:leaf=0.0609616786
						32:leaf=-0.0118182069
					26:[f0<61] yes=33,no=34,missing=34
						33:leaf=-0.0191046316
						34:leaf=-0.0756615549
		6:[f26<1] yes=11,no=12,missing=12
			11:[f0<42] yes=17,no=18,missing=18
				17:leaf=-0.155913308
				18:[f32<1] yes=27,no=28,missing=28
					27:[f0<46] yes=35,no=36,missing=36
						35:leaf=0.0935030952
						36:leaf=-0.0220562927
					28:leaf=-0.0665048212
			12:[f0<50] yes=19,no=20,missing=20
				19:[f28<1] yes=29,no=30,missing=30
					29:leaf=0.0924651027
					30:leaf=0.00598409586
				20:leaf=-0.121400498
booster[42]:
0:[f0<39] yes=1,no=2,missing=2
	1:[f26<1] yes=3,no=4,missing=4
		3:[f31<1] yes=7,no=8,missing=8
			7:leaf=-0.016300451
			8:leaf=0.115714729
		4:leaf=-0.0284455623
	2:[f3<1] yes=5,no=6,missing=6
		5:[f0<67] yes=9,no=10,missing=10
			9:[f32<1] yes=13,no=14,missing=14
				13:[f28<1] yes=19,no=20,missing=20
					19:[f4<1] yes=25,no=26,missing=26
						25:leaf=-0.0934493542
						26:[f26<1] yes=31,no=32,missing=32
							31:leaf=0.0453720689
							32:leaf=-0.0632487983
					20:leaf=0.0597889274
				14:[f27<1] yes=21,no=22,missing=22
					21:leaf=0.100775994
					22:[f0<54] yes=27,no=28,missing=28
						27:leaf=0.0493997782
						28:leaf=-0.0682965666
			10:leaf=-0.0395750552
		6:[f25<1] yes=11,no=12,missing=12
			11:[f0<42] yes=15,no=16,missing=16
				15:leaf=0.126805171
				16:[f6<1] yes=23,no=24,missing=24
					23:[f32<1] yes=29,no=30,missing=30
						29:[f0<47] yes=33,no=34,missing=34
							33:leaf=-0.0554418005
							34:leaf=0.0185771845
						30:leaf=-0.105551608
					24:leaf=0.00709170708
			12:[f0<44] yes=17,no=18,missing=18
				17:leaf=-0.125517622
				18:leaf=0.0132285254
booster[43]:
0:[f34<1] yes=1,no=2,missing=2
	1:[f0<39] yes=3,no=4,missing=4
		3:[f4<1] yes=5,no=6,missing=6
			5:leaf=0.0128191896
			6:leaf=0.0787253827
		4:[f0<61] yes=7,no=8,missing=8
			7:[f5<1] yes=9,no=10,missing=10
				9:[f36<1] yes=13,no=14,missing=14
					13:[f0<42] yes=17,no=18,missing=18
						17:leaf=-0.0634323657
						18:[f25<1] yes=21,no=22,missing=22
							21:leaf=-0.0072052246
							22:leaf=0.0960371867
					14:[f0<48] yes=19,no=20,missing=20
						19:leaf=-0.000854903366
						20:leaf=-0.117165186
				10:leaf=-0.0779367834
			8:[f0<67] yes=11,no=12,missing=12
				11:[f4<1] yes=15,no=16,missing=16
					15:leaf=0.112825342
					16:leaf=-0.0202864837
				12:leaf=-0.0259379931
	2:leaf=-0.0414905772
booster[44]:
0:[f33<1] yes=1,no=2,missing=2
	1:[f0<37] yes=3,no=4,missing=4
		3:[f0<34] yes=7,no=8,missing=8
			7:leaf=0.0328792669
			8:leaf=-0.124695532
		4:[f0<43] yes=9,no=10,missing=10
			9:leaf=0.0778572261
			10:[f3<1] yes=11,no=12,missing=12
				11:[f0<67] yes=13,no=14,missing=14
					13:[f35<1] yes=17,no=18,missing=18
						17:[f0<59] yes=21,no=22,missing=22
							21:leaf=0.0406019837
							22:leaf=-0.0371434391
						18:leaf=0.0675261021
					14:leaf=-0.0573331676
				12:[f6<1] yes=15,no=16,missing=16
					15:[f28<1] yes=19,no=20,missing=20
						19:[f0<48] yes=23,no=24,missing=24
							23:leaf=0.0470642857
							24:leaf=-0.0681481436
						20:leaf=-0.0975155756
					16:leaf=0.0450412519
	2:[f0<42] yes=5,no=6,missing=6
		5:leaf=-0.00790473819
		6:leaf=0.0644547269
booster[45]:
0:[f24<1] yes=1,no=2,missing=2
	1:[f33<1] yes=3,no=4,missing=4
		3:[f0<66] yes=7,no=8,missing=8
			7:[f36<1] yes=9,no=10,missing=10
				9:[f4<1] yes=11,no=12,missing=12
					11:[f35<1] yes=15,no=16,missing=16
						15:leaf=0.111938529
						16:leaf=-0.0252304822
					12:[f0<47] yes=17,no=18,missing=18
						17:[f28<1] yes=19,no=20,missing=20
							19:leaf=-0.118093655
							20:leaf=-0.0335998312
						18:[f0<50] yes=21,no=22,missing=22
							21:leaf=0.0970698297
							22:leaf=-0.0102482494
				10:[f32<1] yes=13,no=14,missing=14
					13:leaf=-0.121585727
					14:leaf=-0.000502941257
			8:leaf=0.0628189892
		4:leaf=0.0796511471
	2:[f32<1] yes=5,no=6,missing=6
		5:leaf=-0.0523413308
		6:leaf=0.0192902908
booster[46]:
0:[f0<39] yes=1,no=2,missing=2
	1:[f0<36] yes=3,no=4,missing=4
		3:leaf=-0.0218397081
		4:leaf=0.0594718494
	2:[f26<1] yes=5,no=6,missing=6
		5:[f0<65] yes=7,no=8,missing=8
			7:[f0<42] yes=11,no=12,missing=12
				11:leaf=-0.125551119
				12:[f0<62] yes=15,no=16,missing=16
					15:[f0<58] yes=19,no=20,missing=20
						19:[f4<1] yes=23,no=24,missing=24
							23:leaf=-0.0914666951
							24:leaf=0.0269784704
						20:leaf=0.0858287513
					16:leaf=-0.0991915911
			8:leaf=0.091779463
		6:[f0<59] yes=9,no=10,missing=10
			9:[f0<52] yes=13,no=14,missing=14
				13:[f0<50] yes=17,no=18,missing=18
					17:[f32<1] yes=21,no=22,missing=22
						21:[f4<1] yes=25,no=26,missing=26
							25:leaf=-0.0552444868
							26:leaf=0.0600139499
						22:leaf=0.0749516934
					18:leaf=-0.0958089307
				14:leaf=0.095745407
			10:leaf=-0.0698891133
booster[47]:
0:[f0<51] yes=1,no=2,missing=2
	1:[f5<1] yes=3,no=4,missing=4
		3:[f0<48] yes=7,no=8,missing=8
			7:[f4<1] yes=11,no=12,missing=12
				11:[f36<1] yes=15,no=16,missing=16
					15:leaf=0.0955011472
					16:leaf=-0.0136372084
				12:[f0<45] yes=17,no=18,missing=18
					17:[f26<1] yes=23,no=24,missing=24
						23:leaf=-0.0398749039
						24:leaf=0.0887498185
					18:[f32<1] yes=25,no=26,missing=26
						25:leaf=-0.00978706125
						26:leaf=-0.0773767531
			8:leaf=0.0661246702
		4:leaf=-0.0640554354
	2:[f0<55] yes=5,no=6,missing=6
		5:leaf=-0.0652379543
		6:[f0<67] yes=9,no=10,missing=10
			9:[f28<1] yes=13,no=14,missing=14
				13:[f0<58] yes=19,no=20,missing=20
					19:leaf=0.0468645915
					20:[f26<1] yes=27,no=28,missing=28
						27:leaf=-0.0138755376
						28:leaf=-0.0611356646
				14:[f0<61] yes=21,no=22,missing=22
					21:leaf=-0.00676382938
					22:leaf=0.0733998641
			10:leaf=-0.0412761569
booster[48]:
0:[f34<1] yes=1,no=2,missing=2
	1:[f0<39] yes=3,no=4,missing=4
		3:[f4<1] yes=5,no=6,missing=6
			5:leaf=0.00411048206
			6:leaf=0.074342601
		4:[f0<61] yes=7,no=8,missing=8
			7:[f0<51] yes=9,no=10,missing=10
				9:[f6<1] yes=13,no=14,missing=14
					13:[f0<45] yes=19,no=20,missing=20
						19:[f25<1] yes=23,no=24,missing=24
							23:leaf=0.136386767
							24:leaf=-0.0945867673
						20:[f0<47] yes=25,no=26,missing=26
							25:leaf=-0.115502037
							26:leaf=-0.00141512894
					14:leaf=0.0464642607
				10:[f4<1] yes=15,no=16,missing=16
					15:leaf=-0.0991581976
					16:[f0<55] yes=21,no=22,missing=22
						21:leaf=-0.0605214499
						22:leaf=0.0392968729
			8:[f0<67] yes=11,no=12,missing=12
				11:[f4<1] yes=17,no=18,missing=18
					17:leaf=0.09600012
					18:leaf=-0.00437446265
				12:leaf=-0.0272521358
	2:leaf=-0.034088932
booster[49]:
0:[f25<1] yes=1,no=2,missing=2
	1:[f5<1] yes=3,no=4,missing=4
		3:[f31<1] yes=7,no=8,missing=8
			7:[f35<1] yes=11,no=12,missing=12
				11:[f34<1] yes=17,no=18,missing=18
					17:[f32<1] yes=21,no=22,missing=22
						21:leaf=0.144075289
						22:[f4<1] yes=25,no=26,missing=26
							25:leaf=0.0800451934
							26:leaf=-0.00105812436
					18:leaf=-0.0186696723
				12:leaf=-0.0488524474
			8:[f0<56] yes=13,no=14,missing=14
				13:[f0<47] yes=19,no=20,missing=20
					19:[f4<1] yes=23,no=24,missing=24
						23:leaf=-0.0176738892
						24:leaf=-0.0804197341
					20:leaf=0.0542366914
				14:leaf=-0.0787245929
		4:leaf=-0.0660431981
	2:[f0<60] yes=5,no=6,missing=6
		5:[f0<51] yes=9,no=10,missing=10
			9:[f31<1] yes=15,no=16,missing=16
				15:leaf=-0.0384807102
				16:leaf=0.0938912034
			10:leaf=-0.103709944
		6:leaf=0.0762126222
booster[50]:
0:[f0<36] yes=1,no=2,missing=2
	1:leaf=-0.0347788818
	2:[f24<1] yes=3,no=4,missing=4
		3:[f0<38] yes=5,no=6,missing=6
			5:leaf=0.0882628858
			6:[f0<66] yes=9,no=10,missing=10
				9:[f36<1] yes=11,no=12,missing=12
					11:[f5<1] yes=13,no=14,missing=14
						13:[f0<51] yes=17,no=18,missing=18
							17:leaf=0.0446800999
							18:leaf=-0.0112756956
						14:leaf=-0.0605132766
					12:[f28<1] yes=15,no=16,missing=16
						15:leaf=-0.01471816
						16:leaf=-0.120773755
				10:leaf=0.0668744966
		4:[f28<1] yes=7,no=8,missing=8
			7:leaf=-0.0704211071
			8:leaf=0.0228298325
booster[51]:
0:[f3<1] yes=1,no=2,missing=2
	1:[f0<67] yes=3,no=4,missing=4
		3:[f0<52] yes=7,no=8,missing=8
			7:leaf=-0.0366394073
			8:[f27<1] yes=11,no=12,missing=12
				11:[f32<1] yes=17,no=18,missing=18
					17:[f31<1] yes=27,no=28,missing=28
						27:leaf=-0.0561710373
						28:[f0<61] yes=29,no=30,missing=30
							29:leaf=0.00253452361
							30:leaf=0.0447197072
					18:leaf=0.14490442
				12:[f36<1] yes=19,no=20,missing=20
					19:leaf=-0.053291101
					20:leaf=0.052521646
		4:leaf=-0.0412816294
	2:[f33<1] yes=5,no=6,missing=6
		5:[f4<1] yes=9,no=10,missing=10
			9:[f0<44] yes=13,no=14,missing=14
				13:[f0<38] yes=21,no=22,missing=22
					21:leaf=0.0448122546
					22:leaf=-0.0571541935
				14:leaf=0.0483745895
			10:[f31<1] yes=15,no=16,missing=16
				15:[f0<45] yes=23,no=24,missing=24
					23:leaf=-0.00809199642
					24:leaf=-0.101863086
				16:[f26<1] yes=25,no=26,missing=26
					25:leaf=0.0307139289
					26:leaf=-0.052892521
		6:leaf=0.0294037033
booster[52]:
0:[f3<1] yes=1,no=2,missing=2
	1:[f0<62] yes=3,no=4,missing=4
		3:[f0<52] yes=7,no=8,missing=8
			7:leaf=-0.0310533103
			8:[f31<1] yes=13,no=14,missing=14
				13:[f0<55] yes=19,no=20,missing=20
					19:leaf=0.0900360271
					20:leaf=0.0167812724
				14:leaf=-0.00213986496
		4:[f28<1] yes=9,no=10,missing=10
			9:leaf=0.0236630365
			10:leaf=-0.0489238612
	2:[f0<50] yes=5,no=6,missing=6
		5:[f27<1] yes=11,no=12,missing=12
			11:[f0<44] yes=15,no=16,missing=16
				15:[f28<1] yes=21,no=22,missing=22
					21:[f4<1] yes=25,no=26,missing=26
						25:leaf=0.00901362486
						26:leaf=-0.0582223199
					22:leaf=0.0202363059
				16:[f28<1] yes=23,no=24,missing=24
					23:leaf=0.0820907429
					24:leaf=0.00420272397
			12:[f0<42] yes=17,no=18,missing=18
				17:leaf=0.0134826899
				18:leaf=-0.0771595687
		6:leaf=-0.0537150241
booster[53]:
0:[f0<36] yes=1,no=2,missing=2
	1:leaf=-0.0341159552
	2:[f24<1] yes=3,no=4,missing=4
		3:[f0<38] yes=5,no=6,missing=6
			5:leaf=0.0764978901
			6:[f0<66] yes=9,no=10,missing=10
				9:[f36<1] yes=11,no=12,missing=12
					11:[f5<1] yes=13,no=14,missing=14
						13:[f0<58] yes=17,no=18,missing=18
							17:leaf=0.0327064954
							18:leaf=-0.0336919613
						14:leaf=-0.0527015962
					12:[f32<1] yes=15,no=16,missing=16
						15:leaf=-0.102081455
						16:leaf=-0.015395538
				10:leaf=0.059775658
		4:[f28<1] yes=7,no=8,missing=8
			7:leaf=-0.0587374084
			8:leaf=0.0139549784
booster[54]:
0:[f0<67] yes=1,no=2,missing=2
	1:[f0<65] yes=3,no=4,missing=4
		3:[f0<62] yes=5,no=6,missing=6
			5:[f30<1] yes=7,no=8,missing=8
				7:[f0<37] yes=9,no=10,missing=10
					9:leaf=-0.0636878908
					10:[f33<1] yes=11,no=12,missing=12
						11:[f0<43] yes=13,no=14,missing=14
							13:leaf=0.0697715655
							14:leaf=-0.00438395608
						12:leaf=-0.0411597453
				8:leaf=0.0527229868
			6:leaf=-0.0463168323
		4:leaf=0.0586770922
	2:leaf=-0.0421212204
booster[55]:
0:[f3<1] yes=1,no=2,missing=2
	1:[f0<64] yes=3,no=4,missing=4
		3:[f27<1] yes=7,no=8,missing=8
			7:[f0<55] yes=13,no=14,missing=14
				13:leaf=0.0081741754
				14:leaf=0.0652140677
			8:[f0<53] yes=15,no=16,missing=16
				15:leaf=0.0498312749
				16:leaf=-0.0504365973
		4:[f28<1] yes=9,no=10,missing=10
			9:leaf=0.0394771099
			10:leaf=-0.0730233416
	2:[f33<1] yes=5,no=6,missing=6
		5:[f4<1] yes=11,no=12,missing=12
			11:[f35<1] yes=17,no=18,missing=18
				17:[f0<44] yes=21,no=22,missing=22
					21:leaf=-0.0244837031
					22:leaf=0.0852259621
				18:leaf=-0.0131226424
			12:[f31<1] yes=19,no=20,missing=20
				19:[f0<45] yes=23,no=24,missing=24
					23:leaf=-0.00982692465
					24:leaf=-0.0871721059
				20:[f26<1] yes=25,no=26,missing=26
					25:leaf=0.022018481
					26:leaf=-0.0470205173
		6:leaf=0.0292255413
booster[56]:
0:[f0<61] yes=1,no=2,missing=2
	1:[f5<1] yes=3,no=4,missing=4
		3:[f0<51] yes=7,no=8,missing=8
			7:[f0<47] yes=11,no=12,missing=12
				11:[f36<1] yes=15,no=16,missing=16
					15:[f4<1] yes=21,no=22,missing=22
						21:leaf=0.0531343855
						22:[f0<39] yes=25,no=26,missing=26
							25:leaf=-0.0173315462
							26:leaf=-0.0842264593
					16:[f27<1] yes=23,no=24,missing=24
						23:leaf=0.0629892796
						24:leaf=-0.0105552133
				12:[f28<1] yes=17,no=18,missing=18
					17:leaf=-0.0103336601
					18:leaf=0.0999992415
			8:[f0<55] yes=13,no=14,missing=14
				13:leaf=-0.0559237041
				14:[f0<57] yes=19,no=20,missing=20
					19:leaf=0.0276302807
					20:leaf=-0.0168764796
		4:leaf=-0.0550191589
	2:[f0<64] yes=5,no=6,missing=6
		5:leaf=0.0698012039
		6:[f28<1] yes=9,no=10,missing=10
			9:leaf=0.0325387493
			10:leaf=-0.0603350028
booster[57]:
0:[f3<1] yes=1,no=2,missing=2
	1:[f0<67] yes=3,no=4,missing=4
		3:[f32<1] yes=7,no=8,missing=8
			7:[f28<1] yes=13,no=14,missing=14
				13:leaf=-0.0528670065
				14:leaf=0.061024867
			8:[f27<1] yes=15,no=16,missing=16
				15:leaf=0.0799843669
				16:leaf=-0.0022007653
		4:leaf=-0.0317612849
	2:[f0<45] yes=5,no=6,missing=6
		5:[f0<41] yes=9,no=10,missing=10
			9:[f31<1] yes=17,no=18,missing=18
				17:leaf=-0.0420845747
				18:leaf=0.0235212315
			10:[f31<1] yes=19,no=20,missing=20
				19:leaf=0.068044506
				20:leaf=0.00113831961
		6:[f25<1] yes=11,no=12,missing=12
			11:[f0<47] yes=21,no=22,missing=22
				21:leaf=-0.0679349229
				22:[f32<1] yes=23,no=24,missing=24
					23:leaf=0.021462068
					24:leaf=-0.0523981117
			12:leaf=0.0113416687
booster[58]:
0:[f0<34] yes=1,no=2,missing=2
	1:leaf=0.0299422443
	2:[f30<1] yes=3,no=4,missing=4
		3:[f0<61] yes=5,no=6,missing=6
			5:[f0<51] yes=7,no=8,missing=8
				7:[f5<1] yes=11,no=12,missing=12
					11:[f0<44] yes=17,no=18,missing=18
						17:[f28<1] yes=21,no=22,missing=22
							21:leaf=-0.036407724
							22:leaf=0.0286255535
						18:[f27<1] yes=23,no=24,missing=24
							23:leaf=0.0559521578
							24:leaf=-0.00633563334
					12:leaf=-0.0433345586
				8:[f23<1] yes=13,no=14,missing=14
					13:leaf=0.0218853448
					14:[f28<1] yes=19,no=20,missing=20
						19:[f27<1] yes=25,no=26,missing=26
							25:leaf=-0.0375026874
							26:leaf=0.0248629209
						20:leaf=-0.105709448
			6:[f0<67] yes=9,no=10,missing=10
				9:[f4<1] yes=15,no=16,missing=16
					15:leaf=0.11061608
					16:leaf=-0.00805609208
				10:leaf=-0.0380120426
		4:leaf=-0.0573640838
booster[59]:
0:[f3<1] yes=1,no=2,missing=2
	1:[f4<1] yes=3,no=4,missing=4
		3:[f0<58] yes=7,no=8,missing=8
			7:leaf=-0.0821791664
			8:[f0<64] yes=15,no=16,missing=16
				15:leaf=0.0774761438
				16:leaf=-0.0279973503
		4:[f0<57] yes=9,no=10,missing=10
			9:leaf=0.0751032382
			10:[f0<65] yes=17,no=18,missing=18
				17:[f26<1] yes=23,no=24,missing=24
					23:leaf=-0.0828018039
					24:leaf=0.0330972373
				18:leaf=0.0356650501
	2:[f0<45] yes=5,no=6,missing=6
		5:[f0<36] yes=11,no=12,missing=12
			11:leaf=-0.0261419415
			12:[f25<1] yes=19,no=20,missing=20
				19:[f0<40] yes=25,no=26,missing=26
					25:leaf=-0.0393634923
					26:leaf=0.108779922
				20:leaf=-0.0157505088
		6:[f25<1] yes=13,no=14,missing=14
			13:[f0<47] yes=21,no=22,missing=22
				21:leaf=-0.0624422617
				22:[f28<1] yes=27,no=28,missing=28
					27:leaf=-0.0510287769
					28:leaf=0.0235097762
			14:leaf=0.00402097637
booster[60]:
0:[f34<1] yes=1,no=2,missing=2
	1:[f0<39] yes=3,no=4,missing=4
		3:[f26<1] yes=5,no=6,missing=6
			5:leaf=0.0630891472
			6:leaf=0.00212511444
		4:[f0<65] yes=7,no=8,missing=8
			7:[f26<1] yes=9,no=10,missing=10
				9:[f0<62] yes=13,no=14,missing=14
					13:[f0<43] yes=17,no=18,missing=18
						17:leaf=-0.0956972912
						18:[f4<1] yes=21,no=22,missing=22
							21:leaf=-0.0475437827
							22:leaf=0.0555862971
					14:leaf=-0.102378517
				10:[f0<52] yes=15,no=16,missing=16
					15:[f0<48] yes=19,no=20,missing=20
						19:[f28<1] yes=23,no=24,missing=24
							23:leaf=0.0855718106
							24:leaf=-0.0513303205
						20:leaf=-0.0836744159
					16:leaf=0.0519842207
			8:[f26<1] yes=11,no=12,missing=12
				11:leaf=0.0897206515
				12:leaf=-0.0414584279
	2:leaf=-0.0280858763
booster[61]:
0:[f33<1] yes=1,no=2,missing=2
	1:[f23<1] yes=3,no=4,missing=4
		3:[f0<54] yes=5,no=6,missing=6
			5:leaf=0.0628425181
			6:leaf=-0.0183030255
		4:[f30<1] yes=7,no=8,missing=8
			7:[f0<37] yes=9,no=10,missing=10
				9:leaf=-0.132149294
				10:[f0<43] yes=11,no=12,missing=12
					11:leaf=0.0655561686
					12:[f36<1] yes=13,no=14,missing=14
						13:[f0<47] yes=15,no=16,missing=16
							15:leaf=-0.0476099364
							16:leaf=0.00411141245
						14:[f31<1] yes=17,no=18,missing=18
							17:leaf=-0.111564495
							18:leaf=0.0144100236
			8:leaf=0.0557503738
	2:leaf=0.0249900594
booster[62]:
0:[f0<34] yes=1,no=2,missing=2
	1:leaf=0.0313277431
	2:[f30<1] yes=3,no=4,missing=4
		3:[f0<61] yes=5,no=6,missing=6
			5:[f0<51] yes=7,no=8,missing=8
				7:[f5<1] yes=11,no=12,missing=12
					11:[f0<44] yes=17,no=18,missing=18
						17:[f0<39] yes=21,no=22,missing=22
							21:leaf=0.0327001251
							22:leaf=-0.0444844104
						18:[f27<1] yes=23,no=24,missing=24
							23:leaf=0.0523907728
							24:leaf=-0.00924186409
					12:leaf=-0.0478303917
				8:[f23<1] yes=13,no=14,missing=14
					13:leaf=0.0224068668
					14:[f28<1] yes=19,no=20,missing=20
						19:[f27<1] yes=25,no=26,missing=26
							25:leaf=-0.0386966541
							26:leaf=0.0074108378
						20:leaf=-0.0969866365
			6:[f0<67] yes=9,no=10,missing=10
				9:[f4<1] yes=15,no=16,missing=16
					15:leaf=0.105890855
					16:leaf=-0.000560384477
				10:leaf=-0.0412997268
		4:leaf=-0.0557534173
booster[63]:
0:[f3<1] yes=1,no=2,missing=2
	1:[f0<64] yes=3,no=4,missing=4
		3:[f27<1] yes=7,no=8,missing=8
			7:[f0<55] yes=13,no=14,missing=14
				13:leaf=0.0134671377
				14:leaf=0.0585779212
			8:[f0<54] yes=15,no=16,missing=16
				15:leaf=0.0120476242
				16:leaf=-0.044422172
		4:[f28<1] yes=9,no=10,missing=10
			9:leaf=0.0312670991
			10:leaf=-0.0592910424
	2:[f0<50] yes=5,no=6,missing=6
		5:[f27<1] yes=11,no=12,missing=12
			11:[f35<1] yes=17,no=18,missing=18
				17:[f0<39] yes=21,no=22,missing=22
					21:leaf=0.0499859527
					22:[f0<42] yes=23,no=24,missing=24
						23:leaf=-0.0621017255
						24:[f28<1] yes=25,no=26,missing=26
							25:leaf=0.063970916
							26:leaf=0.00626200438
				18:leaf=-0.0291049723
			12:[f0<42] yes=19,no=20,missing=20
				19:leaf=0.00833721273
				20:leaf=-0.0681723058
		6:leaf=-0.0532094911
booster[64]:
0:[f33<1] yes=1,no=2,missing=2
	1:[f0<37] yes=3,no=4,missing=4
		3:leaf=-0.0545315072
		4:[f0<43] yes=5,no=6,missing=6
			5:leaf=0.0632260367
			6:[f0<52] yes=7,no=8,missing=8
				7:[f0<50] yes=9,no=10,missing=10
					9:[f0<47] yes=13,no=14,missing=14
						13:[f28<1] yes=17,no=18,missing=18
							17:leaf=0.0254896283
							18:leaf=-0.0990660191
						14:leaf=0.043667946
					10:leaf=-0.117007293
				8:[f0<67] yes=11,no=12,missing=12
					11:[f28<1] yes=15,no=16,missing=16
						15:[f0<58] yes=19,no=20,missing=20
							19:leaf=0.0424737744
							20:leaf=-0.0496954881
						16:[f26<1] yes=21,no=22,missing=22
							21:leaf=-0.0154783158
							22:leaf=0.106509276
					12:leaf=-0.0437330678
	2:leaf=0.0222576447
booster[65]:
0:[f0<61] yes=1,no=2,missing=2
	1:[f30<1] yes=3,no=4,missing=4
		3:[f0<51] yes=7,no=8,missing=8
			7:[f0<49] yes=11,no=12,missing=12
				11:[f31<1] yes=15,no=16,missing=16
					15:[f0<41] yes=19,no=20,missing=20
						19:leaf=-0.0766301155
						20:[f0<47] yes=25,no=26,missing=26
							25:leaf=0.0331885032
							26:leaf=-0.035252057
					16:[f25<1] yes=21,no=22,missing=22
						21:[f0<40] yes=27,no=28,missing=28
							27:leaf=-0.0902542174
							28:leaf=0.0425028391
						22:leaf=0.0575531311
				12:leaf=0.0483336598
			8:[f23<1] yes=13,no=14,missing=14
				13:leaf=0.0202296004
				14:[f27<1] yes=17,no=18,missing=18
					17:[f0<56] yes=23,no=24,missing=24
						23:leaf=-0.108050853
						24:leaf=0.00234312192
					18:leaf=-0.00750283571
		4:leaf=0.0437263772
	2:[f0<64] yes=5,no=6,missing=6
		5:leaf=0.0581621006
		6:[f26<1] yes=9,no=10,missing=10
			9:leaf=0.0294824243
			10:leaf=-0.0549952649
booster[66]:
0:[f0<65] yes=1,no=2,missing=2
	1:[f0<62] yes=3,no=4,missing=4
		3:[f0<58] yes=7,no=8,missing=8
			7:[f5<1] yes=9,no=10,missing=10
				9:[f26<1] yes=11,no=12,missing=12
					11:[f0<51] yes=13,no=14,missing=14
						13:[f0<42] yes=17,no=18,missing=18
							17:leaf=-0.0411212295
							18:leaf=0.0451603718
						14:[f32<1] yes=19,no=20,missing=20
							19:leaf=-0.0788222402
							20:leaf=-0.0156308468
					12:[f31<1] yes=15,no=16,missing=16
						15:[f32<1] yes=21,no=22,missing=22
							21:leaf=0.109463692
							22:leaf=-0.00431431457
						16:[f0<47] yes=23,no=24,missing=24
							23:leaf=-0.051130835
							24:leaf=0.0157842748
				10:leaf=-0.044362992
			8:leaf=0.0398804024
		4:leaf=-0.0540141724
	2:[f26<1] yes=5,no=6,missing=6
		5:leaf=0.0769328028
		6:leaf=-0.046398785
booster[67]:
0:[f0<52] yes=1,no=2,missing=2
	1:[f0<50] yes=3,no=4,missing=4
		3:[f6<1] yes=7,no=8,missing=8
			7:[f31<1] yes=11,no=12,missing=12
				11:[f0<41] yes=15,no=16,missing=16
					15:leaf=-0.0848907456
					16:[f32<1] yes=21,no=22,missing=22
						21:leaf=0.0134325046
						22:leaf=-0.0335294083
				12:[f0<45] yes=17,no=18,missing=18
					17:[f4<1] yes=23,no=24,missing=24
						23:leaf=0.113385208
						24:leaf=-0.00139655382
					18:leaf=-0.0115032289
			8:leaf=0.0281798895
		4:leaf=-0.0708251074
	2:[f0<67] yes=5,no=6,missing=6
		5:[f0<65] yes=9,no=10,missing=10
			9:[f26<1] yes=13,no=14,missing=14
				13:[f0<62] yes=19,no=20,missing=20
					19:[f0<58] yes=25,no=26,missing=26
						25:[f0<54] yes=27,no=28,missing=28
							27:leaf=0.0106777875
							28:leaf=-0.0538453609
						26:leaf=0.078452602
					20:leaf=-0.0833391994
				14:leaf=0.0432024263
			10:leaf=0.0520665646
		6:leaf=-0.028174188
booster[68]:
0:[f0<39] yes=1,no=2,missing=2
	1:[f26<1] yes=3,no=4,missing=4
		3:leaf=0.0499923788
		4:leaf=-0.0219995212
	2:[f0<52] yes=5,no=6,missing=6
		5:[f0<50] yes=7,no=8,missing=8
			7:[f26<1] yes=11,no=12,missing=12
				11:[f0<43] yes=17,no=18,missing=18
					17:leaf=-0.0953242257
					18:[f32<1] yes=23,no=24,missing=24
						23:leaf=0.0420968086
						24:leaf=-0.0256339405
				12:[f28<1] yes=19,no=20,missing=20
					19:leaf=0.0420949385
					20:leaf=-0.00472796755
			8:leaf=-0.0595677793
		6:[f0<56] yes=9,no=10,missing=10
			9:[f28<1] yes=13,no=14,missing=14
				13:leaf=0.0361671969
				14:leaf=0.00391809363
			10:[f0<61] yes=15,no=16,missing=16
				15:leaf=-0.0407530144
				16:[f0<64] yes=21,no=22,missing=22
					21:leaf=0.0589585714
					22:[f28<1] yes=25,no=26,missing=26
						25:leaf=0.0362483449
						26:leaf=-0.0564290695
booster[69]:
0:[f33<1] yes=1,no=2,missing=2
	1:[f23<1] yes=3,no=4,missing=4
		3:[f0<48] yes=5,no=6,missing=6
			5:leaf=0.0523432791
			6:leaf=-0.00567675801
		4:[f30<1] yes=7,no=8,missing=8
			7:[f0<37] yes=9,no=10,missing=10
				9:leaf=-0.107739806
				10:[f0<43] yes=11,no=12,missing=12
					11:leaf=0.0543334261
					12:[f36<1] yes=13,no=14,missing=14
						13:[f0<47] yes=15,no=16,missing=16
							15:leaf=-0.047092855
							16:leaf=0.00929491874
						14:[f31<1] yes=17,no=18,missing=18
							17:leaf=-0.100351013
							18:leaf=0.00178026955
			8:leaf=0.0462489016
	2:leaf=0.0263011623
booster[70]:
0:[f0<61] yes=1,no=2,missing=2
	1:[f5<1] yes=3,no=4,missing=4
		3:[f0<51] yes=7,no=8,missing=8
			7:[f0<47] yes=11,no=12,missing=12
				11:[f0<39] yes=15,no=16,missing=16
					15:[f0<36] yes=21,no=22,missing=22
						21:leaf=-0.0126906531
						22:leaf=0.0615115575
					16:[f26<1] yes=23,no=24,missing=24
						23:leaf=-0.0501976386
						24:leaf=-2.51103866e-05
				12:[f28<1] yes=17,no=18,missing=18
					17:leaf=-0.0128634358
					18:leaf=0.0691011399
			8:[f0<55] yes=13,no=14,missing=14
				13:leaf=-0.0500259213
				14:[f0<57] yes=19,no=20,missing=20
					19:leaf=0.0334713832
					20:leaf=-0.0177366547
		4:leaf=-0.0562512614
	2:[f0<64] yes=5,no=6,missing=6
		5:leaf=0.0522291772
		6:[f28<1] yes=9,no=10,missing=10
			9:leaf=0.0303490181
			10:leaf=-0.0449893698
booster[71]:
0:[f3<1] yes=1,no=2,missing=2
	1:[f0<56] yes=3,no=4,missing=4
		3:[f27<1] yes=7,no=8,missing=8
			7:leaf=0.0489390232
			8:leaf=0.000251103687
		4:[f35<1] yes=9,no=10,missing=10
			9:[f0<65] yes=15,no=16,missing=16
				15:[f0<62] yes=21,no=22,missing=22
					21:leaf=-0.00386238564
					22:leaf=-0.0736320689
				16:leaf=0.0250826161
			10:leaf=0.0349437259
	2:[f0<45] yes=5,no=6,missing=6
		5:[f28<1] yes=11,no=12,missing=12
			11:[f4<1] yes=17,no=18,missing=18
				17:leaf=0.0187961496
				18:leaf=-0.0381342582
			12:leaf=0.0325477682
		6:[f4<1] yes=13,no=14,missing=14
			13:leaf=-0.000296477112
			14:[f28<1] yes=19,no=20,missing=20
				19:leaf=0.00685285917
				20:leaf=-0.077357851
booster[72]:
0:[f24<1] yes=1,no=2,missing=2
	1:[f33<1] yes=3,no=4,missing=4
		3:[f0<37] yes=7,no=8,missing=8
			7:leaf=-0.0518333167
			8:[f0<43] yes=9,no=10,missing=10
				9:leaf=0.0492398553
				10:[f0<52] yes=11,no=12,missing=12
					11:[f26<1] yes=13,no=14,missing=14
						13:leaf=-0.00916353241
						14:[f31<1] yes=17,no=18,missing=18
							17:leaf=-0.00823851023
							18:leaf=-0.0707799792
					12:[f0<56] yes=15,no=16,missing=16
						15:[f27<1] yes=19,no=20,missing=20
							19:leaf=-0.00164035067
							20:leaf=0.0819664225
						16:[f0<65] yes=21,no=22,missing=22
							21:leaf=-0.0411467366
							22:leaf=0.0351451002
		4:leaf=0.0685909837
	2:[f35<1] yes=5,no=6,missing=6
		5:leaf=0.00290993182
		6:leaf=-0.0527524762
booster[73]:
0:[f0<67] yes=1,no=2,missing=2
	1:[f28<1] yes=3,no=4,missing=4
		3:[f0<46] yes=5,no=6,missing=6
			5:[f0<41] yes=9,no=10,missing=10
				9:leaf=-0.0146789635
				10:leaf=0.0605070479
			6:[f26<1] yes=11,no=12,missing=12
				11:[f2<1] yes=15,no=16,missing=16
					15:leaf=-0.0351935439
					16:[f0<54] yes=21,no=22,missing=22
						21:leaf=0.0374873132
						22:leaf=0.0031581854
				12:[f0<55] yes=17,no=18,missing=18
					17:leaf=-0.107756294
					18:leaf=-0.0203294046
		4:[f0<58] yes=7,no=8,missing=8
			7:[f0<51] yes=13,no=14,missing=14
				13:[f0<46] yes=19,no=20,missing=20
					19:leaf=-0.0162361823
					20:leaf=0.0629635826
				14:leaf=-0.062015187
			8:leaf=0.0848617405
	2:leaf=-0.0318941474
booster[74]:
0:[f0<39] yes=1,no=2,missing=2
	1:[f26<1] yes=3,no=4,missing=4
		3:leaf=0.0446912646
		4:leaf=-0.0137834735
	2:[f0<44] yes=5,no=6,missing=6
		5:[f28<1] yes=7,no=8,missing=8
			7:leaf=-0.0607325174
			8:leaf=0.00264287414
		6:[f25<1] yes=9,no=10,missing=10
			9:[f0<59] yes=11,no=12,missing=12
				11:[f0<54] yes=15,no=16,missing=16
					15:[f36<1] yes=19,no=20,missing=20
						19:[f2<1] yes=21,no=22,missing=22
							21:leaf=-0.071315974
							22:leaf=0.00767293852
						20:leaf=0.0429671183
					16:leaf=0.0796127245
				12:[f32<1] yes=17,no=18,missing=18
					17:leaf=-0.0939161032
					18:leaf=0.0417870618
			10:[f28<1] yes=13,no=14,missing=14
				13:leaf=0.080792807
				14:leaf=-0.0322019681
booster[75]:
0:[f24<1] yes=1,no=2,missing=2
	1:[f33<1] yes=3,no=4,missing=4
		3:[f30<1] yes=7,no=8,missing=8
			7:[f0<37] yes=9,no=10,missing=10
				9:leaf=-0.0906971321
				10:[f4<1] yes=11,no=12,missing=12
					11:[f27<1] yes=13,no=14,missing=14
						13:[f32<1] yes=17,no=18,missing=18
							17:leaf=0.00238387845
							18:leaf=0.0807803944
						14:leaf=-0.0167202074
					12:[f25<1] yes=15,no=16,missing=16
						15:[f0<58] yes=19,no=20,missing=20
							19:leaf=0.0309657529
							20:leaf=-0.0597025678
						16:[f0<60] yes=21,no=22,missing=22
							21:leaf=-0.0814569443
							22:leaf=0.017749466
			8:leaf=0.0470652543
		4:leaf=0.0612146668
	2:[f28<1] yes=5,no=6,missing=6
		5:leaf=-0.0376029834
		6:leaf=0.000441785902
booster[76]:
0:[f0<39] yes=1,no=2,missing=2
	1:[f26<1] yes=3,no=4,missing=4
		3:leaf=0.0435342938
		4:leaf=-0.00844546873
	2:[f0<44] yes=5,no=6,missing=6
		5:[f28<1] yes=7,no=8,missing=8
			7:leaf=-0.0520958565
			8:leaf=-0.00121352449
		6:[f0<51] yes=9,no=10,missing=10
			9:[f27<1] yes=11,no=12,missing=12
				11:[f0<48] yes=15,no=16,missing=16
					15:[f32<1] yes=21,no=22,missing=22
						21:leaf=0.0270327646
						22:leaf=-0.00595663721
					16:leaf=0.048614908
				12:leaf=-0.0180653166
			10:[f0<55] yes=13,no=14,missing=14
				13:[f27<1] yes=17,no=18,missing=18
					17:leaf=-0.0115153091
					18:leaf=-0.0586447641
				14:[f27<1] yes=19,no=20,missing=20
					19:[f32<1] yes=23,no=24,missing=24
						23:[f31<1] yes=27,no=28,missing=28
							27:leaf=-0.0549682043
							28:leaf=-0.00948115904
						24:leaf=0.04237023
					20:[f28<1] yes=25,no=26,missing=26
						25:leaf=0.0449058786
						26:leaf=-0.00271931384
booster[77]:
0:[f5<1] yes=1,no=2,missing=2
	1:[f0<51] yes=3,no=4,missing=4
		3:[f27<1] yes=7,no=8,missing=8
			7:[f0<48] yes=11,no=12,missing=12
				11:[f0<41] yes=17,no=18,missing=18
					17:leaf=0.0481888056
					18:[f0<44] yes=21,no=22,missing=22
						21:leaf=-0.0511829033
						22:[f32<1] yes=25,no=26,missing=26
							25:leaf=0.0227444582
							26:leaf=-0.000434184767
				12:leaf=0.0715608075
			8:[f0<45] yes=13,no=14,missing=14
				13:leaf=0.0159127824
				14:leaf=-0.0402746089
		4:[f0<54] yes=9,no=10,missing=10
			9:leaf=-0.0487785973
			10:[f4<1] yes=15,no=16,missing=16
				15:leaf=-0.0302279014
				16:[f0<57] yes=19,no=20,missing=20
					19:leaf=0.0767731145
					20:[f0<65] yes=23,no=24,missing=24
						23:[f26<1] yes=27,no=28,missing=28
							27:leaf=-0.0677666366
							28:leaf=0.0132695017
						24:leaf=0.0190983303
	2:[f0<53] yes=5,no=6,missing=6
		5:leaf=-0.0654691979
		6:leaf=0.0274130553
booster[78]:
0:[f0<67] yes=1,no=2,missing=2
	1:[f28<1] yes=3,no=4,missing=4
		3:[f0<46] yes=5,no=6,missing=6
			5:[f0<41] yes=9,no=10,missing=10
				9:[f0<37] yes=15,no=16,missing=16
					15:leaf=-0.0195895955
					16:leaf=-0.0059850472
				10:leaf=0.0626823679
			6:[f3<1] yes=11,no=12,missing=12
				11:[f32<1] yes=17,no=18,missing=18
					17:[f26<1] yes=21,no=22,missing=22
						21:leaf=-0.00807339232
						22:leaf=-0.0473214276
					18:leaf=0.0412892513
				12:leaf=-0.0782693326
		4:[f0<58] yes=7,no=8,missing=8
			7:[f27<1] yes=13,no=14,missing=14
				13:[f0<48] yes=19,no=20,missing=20
					19:[f0<43] yes=23,no=24,missing=24
						23:leaf=0.0322886743
						24:leaf=-0.0245125834
					20:leaf=0.0512817241
				14:leaf=-0.0622598305
			8:leaf=0.0753367841
	2:leaf=-0.0306995101
booster[79]:
0:[f34<1] yes=1,no=2,missing=2
	1:[f0<39] yes=3,no=4,missing=4
		3:[f4<1] yes=5,no=6,missing=6
			5:leaf=-0.00371344085
			6:leaf=0.0633095875
		4:[f0<65] yes=7,no=8,missing=8
			7:[f0<50] yes=9,no=10,missing=10
				9:[f25<1] yes=11,no=12,missing=12
					11:[f0<45] yes=15,no=16,missing=16
						15:leaf=0.0650654063
						16:[f0<47] yes=19,no=20,missing=20
							19:leaf=-0.0391753688
							20:leaf=0.0275499001
					12:leaf=-0.0409145281
				10:[f25<1] yes=13,no=14,missing=14
					13:[f0<54] yes=17,no=18,missing=18
						17:leaf=-0.0611516088
						18:[f0<58] yes=21,no=22,missing=22
							21:leaf=0.0536456369
							22:leaf=-0.0659880638
					14:leaf=0.0025235666
			8:leaf=0.0319789425
	2:leaf=-0.0310510416
booster[80]:
0:[f5<1] yes=1,no=2,missing=2
	1:[f0<51] yes=3,no=4,missing=4
		3:[f0<47] yes=7,no=8,missing=8
			7:[f0<39] yes=11,no=12,missing=12
				11:[f0<36] yes=19,no=20,missing=20
					19:leaf=-0.0134448064
					20:leaf=0.0460453779
				12:[f26<1] yes=21,no=22,missing=22
					21:leaf=-0.0426927879
					22:leaf=0.00728066731
			8:[f28<1] yes=13,no=14,missing=14
				13:leaf=0.00789906085
				14:leaf=0.0623189062
		4:[f28<1] yes=9,no=10,missing=10
			9:[f26<1] yes=15,no=16,missing=16
				15:[f0<60] yes=23,no=24,missing=24
					23:leaf=-0.030194005
					24:leaf=0.11793524
				16:leaf=-0.0412770398
			10:[f26<1] yes=17,no=18,missing=18
				17:leaf=-0.086067453
				18:leaf=0.0263471697
	2:[f0<53] yes=5,no=6,missing=6
		5:leaf=-0.0596453696
		6:leaf=0.017940877
booster[81]:
0:[f5<1] yes=1,no=2,missing=2
	1:[f33<1] yes=3,no=4,missing=4
		3:[f2<1] yes=7,no=8,missing=8
			7:[f0<50] yes=9,no=10,missing=10
				9:[f4<1] yes=13,no=14,missing=14
					13:[f32<1] yes=17,no=18,missing=18
						17:leaf=-0.0144084599
						18:leaf=0.0704072416
					14:[f31<1] yes=19,no=20,missing=20
						19:leaf=-0.0477782749
						20:leaf=0.0182585213
				10:leaf=-0.0581165701
			8:[f0<53] yes=11,no=12,missing=12
				11:leaf=0.0647229254
				12:[f0<64] yes=15,no=16,missing=16
					15:[f27<1] yes=21,no=22,missing=22
						21:leaf=0.0567544661
						22:leaf=-0.0493246429
					16:leaf=-0.026346622
		4:leaf=0.0373451859
	2:[f32<1] yes=5,no=6,missing=6
		5:leaf=-0.00300874608
		6:leaf=-0.0322722308
booster[82]:
0:[f5<1] yes=1,no=2,missing=2
	1:[f0<51] yes=3,no=4,missing=4
		3:[f0<47] yes=5,no=6,missing=6
			5:[f0<39] yes=9,no=10,missing=10
				9:[f0<36] yes=17,no=18,missing=18
					17:leaf=-0.00824405905
					18:leaf=0.0346462838
				10:[f26<1] yes=19,no=20,missing=20
					19:leaf=-0.0387751237
					20:leaf=0.004186932
			6:[f28<1] yes=11,no=12,missing=12
				11:leaf=0.00937846955
				12:leaf=0.0542162471
		4:[f28<1] yes=7,no=8,missing=8
			7:[f32<1] yes=13,no=14,missing=14
				13:[f26<1] yes=21,no=22,missing=22
					21:leaf=0.0180652495
					22:leaf=-0.0512160324
				14:leaf=0.0633859336
			8:[f26<1] yes=15,no=16,missing=16
				15:leaf=-0.0710975155
				16:leaf=0.0181188919
	2:leaf=-0.0198253356
booster[83]:
0:[f0<52] yes=1,no=2,missing=2
	1:[f0<50] yes=3,no=4,missing=4
		3:[f35<1] yes=7,no=8,missing=8
			7:[f27<1] yes=13,no=14,missing=14
				13:[f0<39] yes=17,no=18,missing=18
					17:leaf=0.0488498509
					18:[f25<1] yes=21,no=22,missing=22
						21:[f28<1] yes=23,no=24,missing=24
							23:leaf=0.0690965578
							24:leaf=-0.0217579883
						22:leaf=-0.0287106484
				14:leaf=-0.0189381726
			8:leaf=-0.0269755647
		4:leaf=-0.0583829321
	2:[f0<64] yes=5,no=6,missing=6
		5:[f23<1] yes=9,no=10,missing=10
			9:leaf=0.0556290857
			10:[f25<1] yes=15,no=16,missing=16
				15:[f0<57] yes=19,no=20,missing=20
					19:leaf=0.0731242374
					20:leaf=-0.0440251082
				16:leaf=-0.0289048906
		6:[f28<1] yes=11,no=12,missing=12
			11:leaf=0.0352074355
			12:leaf=-0.0458029397
booster[84]:
0:[f25<1] yes=1,no=2,missing=2
	1:[f0<42] yes=3,no=4,missing=4
		3:[f0<38] yes=7,no=8,missing=8
			7:leaf=-0.0227470044
			8:leaf=0.0732076168
		4:[f0<52] yes=9,no=10,missing=10
			9:[f36<1] yes=13,no=14,missing=14
				13:leaf=-0.0547624417
				14:leaf=-0.0142432433
			10:[f0<59] yes=15,no=16,missing=16
				15:[f32<1] yes=19,no=20,missing=20
					19:leaf=0.0929025561
					20:leaf=-0.0256517772
				16:[f32<1] yes=21,no=22,missing=22
					21:leaf=-0.0607009903
					22:leaf=0.0309259761
	2:[f0<42] yes=5,no=6,missing=6
		5:leaf=-0.0539411269
		6:[f0<54] yes=11,no=12,missing=12
			11:leaf=0.105863668
			12:[f0<61] yes=17,no=18,missing=18
				17:leaf=-0.0457169004
				18:leaf=0.0272128787
booster[85]:
0:[f0<61] yes=1,no=2,missing=2
	1:[f35<1] yes=3,no=4,missing=4
		3:[f23<1] yes=7,no=8,missing=8
			7:leaf=0.0422228314
			8:[f36<1] yes=11,no=12,missing=12
				11:[f0<51] yes=13,no=14,missing=14
					13:[f0<42] yes=15,no=16,missing=16
						15:[f26<1] yes=19,no=20,missing=20
							19:leaf=-0.0485733487
							20:leaf=0.0320864432
						16:[f26<1] yes=21,no=22,missing=22
							21:leaf=0.120372519
							22:leaf=-0.00520751672
					14:[f31<1] yes=17,no=18,missing=18
						17:leaf=-0.0526263379
						18:leaf=0.0282546878
				12:leaf=-0.069321461
		4:leaf=-0.0453056842
	2:[f0<64] yes=5,no=6,missing=6
		5:leaf=0.0463772714
		6:[f28<1] yes=9,no=10,missing=10
			9:leaf=0.0330003686
			10:leaf=-0.0382015817
booster[86]:
0:[f34<1] yes=1,no=2,missing=2
	1:[f24<1] yes=3,no=4,missing=4
		3:[f0<65] yes=5,no=6,missing=6
			5:[f0<38] yes=7,no=8,missing=8
				7:leaf=0.0514114127
				8:[f36<1] yes=9,no=10,missing=10
					9:[f0<42] yes=11,no=12,missing=12
						11:leaf=-0.0302000772
						12:[f0<50] yes=13,no=14,missing=14
							13:leaf=0.0399112366
							14:leaf=-0.0119794449
					10:leaf=-0.0627717376
			6:leaf=0.0642902702
		4:leaf=-0.0310357809
	2:leaf=-0.0252458733
booster[87]:
0:[f3<1] yes=1,no=2,missing=2
	1:[f0<64] yes=3,no=4,missing=4
		3:[f27<1] yes=7,no=8,missing=8
			7:[f28<1] yes=13,no=14,missing=14
				13:leaf=0.0129161598
				14:leaf=0.0616520979
			8:[f0<54] yes=15,no=16,missing=16
				15:leaf=0.0146113653
				16:leaf=-0.0358884372
		4:[f28<1] yes=9,no=10,missing=10
			9:leaf=0.0214782171
			10:leaf=-0.039036274
	2:[f6<1] yes=5,no=6,missing=6
		5:[f32<1] yes=11,no=12,missing=12
			11:[f36<1] yes=17,no=18,missing=18
				17:[f33<1] yes=19,no=20,missing=20
					19:[f0<47] yes=21,no=22,missing=22
						21:[f0<40] yes=23,no=24,missing=24
							23:leaf=-0.0754578859
							24:leaf=-0.0210888684
						22:leaf=0.0228207801
					20:leaf=0.0573877022
				18:leaf=0.0638807639
			12:leaf=-0.0819388255
		6:leaf=0.0280193854
booster[88]:
0:[f28<1] yes=1,no=2,missing=2
	1:[f32<1] yes=3,no=4,missing=4
		3:[f0<48] yes=7,no=8,missing=8
			7:[f26<1] yes=13,no=14,missing=14
				13:leaf=-0.0344970301
				14:leaf=0.0558350235
			8:[f25<1] yes=15,no=16,missing=16
				15:leaf=-0.0777798444
				16:leaf=0.0253709275
		4:[f2<1] yes=9,no=10,missing=10
			9:leaf=-0.0134466486
			10:leaf=0.0472552739
	2:[f0<64] yes=5,no=6,missing=6
		5:[f0<57] yes=11,no=12,missing=12
			11:[f0<51] yes=17,no=18,missing=18
				17:[f0<46] yes=19,no=20,missing=20
					19:leaf=-0.00690226909
					20:leaf=0.0527540967
				18:leaf=-0.0503140464
			12:leaf=0.0690875798
		6:leaf=-0.0327677876
booster[89]:
0:[f3<1] yes=1,no=2,missing=2
	1:[f27<1] yes=3,no=4,missing=4
		3:[f0<64] yes=7,no=8,missing=8
			7:[f28<1] yes=15,no=16,missing=16
				15:leaf=0.0144668929
				16:leaf=0.0527822673
			8:leaf=-0.0160727669
		4:[f32<1] yes=9,no=10,missing=10
			9:leaf=0.0147123011
			10:[f0<56] yes=17,no=18,missing=18
				17:leaf=0.015419621
				18:leaf=-0.0407844111
	2:[f0<45] yes=5,no=6,missing=6
		5:[f28<1] yes=11,no=12,missing=12
			11:[f4<1] yes=19,no=20,missing=20
				19:leaf=0.0219932497
				20:leaf=-0.0435396396
			12:leaf=0.0332480781
		6:[f4<1] yes=13,no=14,missing=14
			13:leaf=0.00116288313
			14:[f28<1] yes=21,no=22,missing=22
				21:leaf=0.0188327283
				22:leaf=-0.0711866468
booster[90]:
0:[f0<65] yes=1,no=2,missing=2
	1:[f0<62] yes=3,no=4,missing=4
		3:[f35<1] yes=7,no=8,missing=8
			7:[f0<39] yes=9,no=10,missing=10
				9:leaf=0.0343280919
				10:[f0<43] yes=13,no=14,missing=14
					13:leaf=-0.0516516976
					14:[f0<51] yes=15,no=16,missing=16
						15:[f26<1] yes=17,no=18,missing=18
							17:leaf=0.0520528071
							18:leaf=0.0011555166
						16:[f0<55] yes=19,no=20,missing=20
							19:leaf=-0.0402250104
							20:leaf=0.0270834863
			8:[f27<1] yes=11,no=12,missing=12
				11:leaf=-0.0484282188
				12:leaf=0.00630096346
		4:leaf=-0.0423547551
	2:[f26<1] yes=5,no=6,missing=6
		5:leaf=0.0663623065
		6:leaf=-0.0277682338
booster[91]:
0:[f34<1] yes=1,no=2,missing=2
	1:[f24<1] yes=3,no=4,missing=4
		3:[f0<65] yes=5,no=6,missing=6
			5:[f36<1] yes=7,no=8,missing=8
				7:[f0<51] yes=9,no=10,missing=10
					9:[f4<1] yes=13,no=14,missing=14
						13:leaf=0.0731852278
						14:[f0<47] yes=17,no=18,missing=18
							17:leaf=-0.0462911613
							18:leaf=0.0537871122
					10:[f31<1] yes=15,no=16,missing=16
						15:leaf=-0.051203385
						16:leaf=0.024115609
				8:[f0<46] yes=11,no=12,missing=12
					11:leaf=-0.00264868489
					12:leaf=-0.0640005842
			6:leaf=0.0596531816
		4:leaf=-0.0287632309
	2:leaf=-0.0258379597
booster[92]:
0:[f3<1] yes=1,no=2,missing=2
	1:[f0<64] yes=3,no=4,missing=4
		3:[f31<1] yes=7,no=8,missing=8
			7:[f27<1] yes=15,no=16,missing=16
				15:leaf=0.0541706197
				16:leaf=0.0134163545
			8:leaf=-0.015148147
		4:[f28<1] yes=9,no=10,missing=10
			9:leaf=0.0207181983
			10:leaf=-0.0356401354
	2:[f0<46] yes=5,no=6,missing=6
		5:[f6<1] yes=11,no=12,missing=12
			11:[f0<41] yes=17,no=18,missing=18
				17:[f31<1] yes=19,no=20,missing=20
					19:leaf=-0.0799283683
					20:leaf=0.05637661
				18:leaf=0.0705173016
			12:leaf=-0.0451593995
		6:[f28<1] yes=13,no=14,missing=14
			13:leaf=-0.0739747882
			14:leaf=0.0181827843
booster[93]:
0:[f5<1] yes=1,no=2,missing=2
	1:[f2<1] yes=3,no=4,missing=4
		3:[f0<51] yes=5,no=6,missing=6
			5:[f27<1] yes=9,no=10,missing=10
				9:[f0<47] yes=13,no=14,missing=14
					13:[f0<41] yes=17,no=18,missing=18
						17:leaf=0.0307749454
						18:[f31<1] yes=19,no=20,missing=20
							19:leaf=0.0256037451
							20:leaf=-0.0561334565
					14:leaf=0.039483577
				10:leaf=-0.0340496451
			6:leaf=-0.0456709042
		4:[f0<53] yes=7,no=8,missing=8
			7:leaf=0.0463218838
			8:[f27<1] yes=11,no=12,missing=12
				11:[f0<64] yes=15,no=16,missing=16
					15:leaf=0.0513786413
					16:leaf=-0.0243176948
				12:leaf=-0.0274129547
	2:leaf=-0.0216480084
booster[94]:
0:[f0<61] yes=1,no=2,missing=2
	1:[f5<1] yes=3,no=4,missing=4
		3:[f0<51] yes=7,no=8,missing=8
			7:[f0<49] yes=11,no=12,missing=12
				11:[f4<1] yes=15,no=16,missing=16
					15:[f36<1] yes=19,no=20,missing=20
						19:leaf=0.0720910802
						20:leaf=-0.0220488869
					16:[f0<46] yes=21,no=22,missing=22
						21:[f26<1] yes=23,no=24,missing=24
							23:leaf=-0.0218971446
							24:leaf=0.0429175757
						22:leaf=-0.0531558357
				12:leaf=0.0386441015
			8:[f0<55] yes=13,no=14,missing=14
				13:leaf=-0.0396371409
				14:[f0<58] yes=17,no=18,missing=18
					17:leaf=0.0171600524
					18:leaf=-0.00633133296
		4:leaf=-0.0440950803
	2:[f0<64] yes=5,no=6,missing=6
		5:leaf=0.0441195108
		6:[f28<1] yes=9,no=10,missing=10
			9:leaf=0.0212805085
			10:leaf=-0.0261982698
booster[95]:
0:[f0<52] yes=1,no=2,missing=2
	1:[f25<1] yes=3,no=4,missing=4
		3:[f0<42] yes=7,no=8,missing=8
			7:[f0<38] yes=13,no=14,missing=14
				13:leaf=-0.02174755
				14:leaf=0.067466557
			8:[f36<1] yes=15,no=16,missing=16
				15:leaf=-0.0579702631
				16:leaf=-0.00695048226
		4:leaf=0.0252357852
	2:[f0<56] yes=5,no=6,missing=6
		5:[f27<1] yes=9,no=10,missing=10
			9:leaf=0.00293922983
			10:leaf=0.0420888215
		6:[f4<1] yes=11,no=12,missing=12
			11:[f0<64] yes=17,no=18,missing=18
				17:leaf=0.0315636769
				18:leaf=0.00303939218
			12:[f31<1] yes=19,no=20,missing=20
				19:leaf=0.0219403561
				20:leaf=-0.0479788445
booster[96]:
0:[f34<1] yes=1,no=2,missing=2
	1:[f0<65] yes=3,no=4,missing=4
		3:[f0<50] yes=5,no=6,missing=6
			5:[f35<1] yes=7,no=8,missing=8
				7:[f0<42] yes=11,no=12,missing=12
					11:[f26<1] yes=15,no=16,missing=16
						15:leaf=-0.04917657
						16:leaf=0.0603776053
					12:[f26<1] yes=17,no=18,missing=18
						17:leaf=0.0555761047
						18:[f32<1] yes=21,no=22,missing=22
							21:leaf=-0.0137035353
							22:leaf=0.0365967266
				8:leaf=-0.0278736036
			6:[f4<1] yes=9,no=10,missing=10
				9:leaf=-0.0384934768
				10:[f32<1] yes=13,no=14,missing=14
					13:[f2<1] yes=19,no=20,missing=20
						19:leaf=-0.00668625021
						20:leaf=0.0315031223
					14:leaf=-0.040895775
		4:leaf=0.0328684151
	2:leaf=-0.0245227721
booster[97]:
0:[f0<52] yes=1,no=2,missing=2
	1:[f6<1] yes=3,no=4,missing=4
		3:[f32<1] yes=7,no=8,missing=8
			7:[f0<45] yes=13,no=14,missing=14
				13:[f31<1] yes=19,no=20,missing=20
					19:leaf=-0.0133002847
					20:leaf=0.0603158511
				14:leaf=-0.0214432664
			8:leaf=-0.0717094019
		4:leaf=0.0322375931
	2:[f0<56] yes=5,no=6,missing=6
		5:[f27<1] yes=9,no=10,missing=10
			9:leaf=0.00451171258
			10:leaf=0.040367119
		6:[f4<1] yes=11,no=12,missing=12
			11:[f0<64] yes=15,no=16,missing=16
				15:leaf=0.0321676396
				16:leaf=-0.000742909207
			12:[f31<1] yes=17,no=18,missing=18
				17:leaf=0.0179364607
				18:leaf=-0.0443313234
booster[98]:
0:[f34<1] yes=1,no=2,missing=2
	1:[f24<1] yes=3,no=4,missing=4
		3:[f0<65] yes=5,no=6,missing=6
			5:[f0<38] yes=7,no=8,missing=8
				7:leaf=0.0418506525
				8:[f36<1] yes=9,no=10,missing=10
					9:[f0<42] yes=11,no=12,missing=12
						11:leaf=-0.0327404924
						12:[f0<50] yes=13,no=14,missing=14
							13:leaf=0.0375860855
							14:leaf=-0.00853038393
					10:leaf=-0.0517413206
			6:leaf=0.0502493456
		4:leaf=-0.0256238598
	2:leaf=-0.0206820648
booster[99]:
0:[f3<1] yes=1,no=2,missing=2
	1:[f0<64] yes=3,no=4,missing=4
		3:[f23<1] yes=7,no=8,missing=8
			7:leaf=0.056123063
			8:[f0<60] yes=13,no=14,missing=14
				13:[f0<56] yes=19,no=20,missing=20
					19:leaf=0.0213841498
					20:leaf=-0.0509888977
				14:leaf=0.0267655365
		4:[f4<1] yes=9,no=10,missing=10
			9:leaf=-0.0041401512
			10:leaf=-0.0190627147
	2:[f6<1] yes=5,no=6,missing=6
		5:[f31<1] yes=11,no=12,missing=12
			11:[f33<1] yes=15,no=16,missing=16
				15:leaf=-0.0637542754
				16:leaf=0.00867092516
			12:[f0<45] yes=17,no=18,missing=18
				17:leaf=0.0493233278
				18:leaf=-0.0122946938
		6:leaf=0.0199440829
booster[100]:
0:[f0<41] yes=1,no=2,missing=2
	1:[f26<1] yes=3,no=4,missing=4
		3:leaf=0.0148035539
		4:leaf=-0.0432016589
	2:[f6<1] yes=5,no=6,missing=6
		5:[f0<45] yes=7,no=8,missing=8
			7:leaf=0.0657387301
			8:[f0<49] yes=9,no=10,missing=10
				9:[f28<1] yes=11,no=12,missing=12
					11:leaf=-0.0073140678
					12:leaf=-0.0636112466
				10:[f31<1] yes=13,no=14,missing=14
					13:[f27<1] yes=15,no=16,missing=16
						15:[f0<59] yes=19,no=20,missing=20
							19:leaf=0.0918869749
							20:leaf=-0.00181425409
						16:[f4<1] yes=21,no=22,missing=22
							21:leaf=-0.0312490296
							22:leaf=0.00595606817
					14:[f2<1] yes=17,no=18,missing=18
						17:leaf=-0.0426299125
						18:[f0<61] yes=23,no=24,missing=24
							23:leaf=-0.0258548465
							24:leaf=0.0535888262
		6:leaf=-0.0239139888
booster[101]:
0:[f5<1] yes=1,no=2,missing=2
	1:[f31<1] yes=3,no=4,missing=4
		3:[f25<1] yes=5,no=6,missing=6
			5:[f23<1] yes=9,no=10,missing=10
				9:leaf=-0.0287112799
				10:[f0<45] yes=13,no=14,missing=14
					13:leaf=0.114480183
					14:[f26<1] yes=17,no=18,missing=18
						17:leaf=-0.0218745526
						18:[f0<49] yes=19,no=20,missing=20
							19:leaf=0.00759566436
							20:leaf=0.0410407707
			6:leaf=-0.0344795696
		4:[f25<1] yes=7,no=8,missing=8
			7:[f0<44] yes=11,no=12,missing=12
				11:leaf=-0.066630505
				12:[f0<56] yes=15,no=16,missing=16
					15:leaf=0.0472246148
					16:leaf=-0.0490374528
			8:leaf=0.0236635115
	2:leaf=-0.0235018861
booster[102]:
0:[f0<44] yes=1,no=2,missing=2
	1:[f28<1] yes=3,no=4,missing=4
		3:[f4<1] yes=7,no=8,missing=8
			7:leaf=-0.000850894256
			8:leaf=-0.06157168
		4:leaf=0.0147225251
	2:[f0<51] yes=5,no=6,missing=6
		5:[f27<1] yes=9,no=10,missing=10
			9:[f0<47] yes=13,no=14,missing=14
				13:leaf=0.0110689038
				14:leaf=0.041417297
			10:leaf=-0.0153656071
		6:[f0<55] yes=11,no=12,missing=12
			11:leaf=-0.0321074538
			12:[f31<1] yes=15,no=16,missing=16
				15:[f4<1] yes=17,no=18,missing=18
					17:leaf=-0.0447097383
					18:leaf=0.0352840573
				16:[f26<1] yes=19,no=20,missing=20
					19:leaf=0.05280504
					20:leaf=-0.00352023542
booster[103]:
0:[f0<52] yes=1,no=2,missing=2
	1:[f25<1] yes=3,no=4,missing=4
		3:[f0<42] yes=7,no=8,missing=8
			7:[f0<38] yes=11,no=12,missing=12
				11:leaf=-0.028589325
				12:leaf=0.0580958016
			8:[f36<1] yes=13,no=14,missing=14
				13:leaf=-0.0462562069
				14:leaf=-0.00184867531
		4:leaf=0.0191689376
	2:[f25<1] yes=5,no=6,missing=6
		5:[f0<59] yes=9,no=10,missing=10
			9:[f32<1] yes=15,no=16,missing=16
				15:leaf=0.0947066918
				16:leaf=-0.00457670214
			10:[f32<1] yes=17,no=18,missing=18
				17:leaf=-0.053070832
				18:leaf=0.0257929396
		6:leaf=-0.0145186381
booster[104]:
0:[f0<44] yes=1,no=2,missing=2
	1:[f28<1] yes=3,no=4,missing=4
		3:[f4<1] yes=7,no=8,missing=8
			7:leaf=-0.00204476318
			8:leaf=-0.0533489846
		4:leaf=0.00961430557
	2:[f0<51] yes=5,no=6,missing=6
		5:[f27<1] yes=9,no=10,missing=10
			9:leaf=0.0354481414
			10:leaf=-0.00912169833
		6:[f0<55] yes=11,no=12,missing=12
			11:leaf=-0.0265615396
			12:[f31<1] yes=13,no=14,missing=14
				13:[f4<1] yes=15,no=16,missing=16
					15:leaf=-0.0391846746
					16:leaf=0.0290299859
				14:[f26<1] yes=17,no=18,missing=18
					17:leaf=0.0432208888
					18:leaf=-0.00327775255
booster[105]:
0:[f3<1] yes=1,no=2,missing=2
	1:[f0<64] yes=3,no=4,missing=4
		3:[f31<1] yes=7,no=8,missing=8
			7:leaf=0.0398337655
			8:leaf=-0.012307751
		4:leaf=-0.0102181286
	2:[f6<1] yes=5,no=6,missing=6
		5:[f31<1] yes=9,no=10,missing=10
			9:[f26<1] yes=11,no=12,missing=12
				11:leaf=-0.0743413866
				12:[f32<1] yes=15,no=16,missing=16
					15:leaf=0.033513125
					16:leaf=-0.046049539
			10:[f0<45] yes=13,no=14,missing=14
				13:leaf=0.0440879352
				14:leaf=-0.0212462358
		6:leaf=0.0209124442
booster[106]:
0:[f0<44] yes=1,no=2,missing=2
	1:[f28<1] yes=3,no=4,missing=4
		3:[f4<1] yes=7,no=8,missing=8
			7:leaf=-0.00503219431
			8:leaf=-0.048196841
		4:leaf=0.00859744567
	2:[f0<51] yes=5,no=6,missing=6
		5:[f27<1] yes=9,no=10,missing=10
			9:[f0<47] yes=13,no=14,missing=14
				13:leaf=0.00935993157
				14:leaf=0.0379653685
			10:leaf=-0.00746878749
		6:[f36<1] yes=11,no=12,missing=12
			11:[f25<1] yes=15,no=16,missing=16
				15:[f0<58] yes=17,no=18,missing=18
					17:[f26<1] yes=19,no=20,missing=20
						19:leaf=0.0108231734
						20:leaf=0.0500128753
					18:leaf=-0.0360621028
				16:leaf=-0.0506029651
			12:leaf=0.0215497278
booster[107]:
0:[f3<1] yes=1,no=2,missing=2
	1:[f0<64] yes=3,no=4,missing=4
		3:[f27<1] yes=7,no=8,missing=8
			7:[f0<57] yes=11,no=12,missing=12
				11:leaf=0.00806621276
				12:leaf=0.040396437
			8:[f0<54] yes=13,no=14,missing=14
				13:leaf=0.0184910204
				14:leaf=-0.0285751019
		4:leaf=-0.00529605802
	2:[f6<1] yes=5,no=6,missing=6
		5:[f0<46] yes=9,no=10,missing=10
			9:[f35<1] yes=15,no=16,missing=16
				15:[f0<39] yes=19,no=20,missing=20
					19:leaf=0.0484732278
					20:leaf=0.00301397266
				16:leaf=-0.0304169394
			10:[f0<49] yes=17,no=18,missing=18
				17:leaf=-0.0575968549
				18:leaf=-0.0108916219
		6:leaf=0.0171950348
booster[108]:
0:[f0<44] yes=1,no=2,missing=2
	1:[f28<1] yes=3,no=4,missing=4
		3:[f4<1] yes=7,no=8,missing=8
			7:leaf=-0.00405225717
			8:leaf=-0.045327533
		4:leaf=0.00484112557
	2:[f0<51] yes=5,no=6,missing=6
		5:[f27<1] yes=9,no=10,missing=10
			9:[f31<1] yes=13,no=14,missing=14
				13:leaf=0.0381995179
				14:leaf=0.00912181009
			10:leaf=-0.00610335171
		6:[f0<55] yes=11,no=12,missing=12
			11:leaf=-0.032702785
			12:[f27<1] yes=15,no=16,missing=16
				15:[f0<60] yes=17,no=18,missing=18
					17:leaf=-0.0328933261
					18:[f25<1] yes=19,no=20,missing=20
						19:leaf=-0.0228199139
						20:leaf=0.0488867164
				16:leaf=0.0282987449
booster[109]:
0:[f0<47] yes=1,no=2,missing=2
	1:[f0<45] yes=3,no=4,missing=4
		3:[f0<40] yes=7,no=8,missing=8
			7:[f26<1] yes=11,no=12,missing=12
				11:leaf=0.0225829761
				12:leaf=-0.0454457477
			8:leaf=0.0100439675
		4:leaf=-0.031856712
	2:[f0<50] yes=5,no=6,missing=6
		5:leaf=0.0341690071
		6:[f3<1] yes=9,no=10,missing=10
			9:[f23<1] yes=13,no=14,missing=14
				13:leaf=0.0363465883
				14:[f0<65] yes=15,no=16,missing=16
					15:[f26<1] yes=17,no=18,missing=18
						17:[f0<56] yes=19,no=20,missing=20
							19:leaf=0.00013889368
							20:leaf=-0.0641541258
						18:leaf=0.0196635295
					16:leaf=0.0317384116
			10:leaf=-0.0330919474
booster[110]:
0:[f5<1] yes=1,no=2,missing=2
	1:[f31<1] yes=3,no=4,missing=4
		3:[f25<1] yes=5,no=6,missing=6
			5:[f23<1] yes=9,no=10,missing=10
				9:leaf=-0.024971664
				10:[f0<45] yes=13,no=14,missing=14
					13:leaf=0.102868326
					14:[f2<1] yes=17,no=18,missing=18
						17:leaf=-0.0201735124
						18:leaf=0.0298473071
			6:leaf=-0.0285389088
		4:[f25<1] yes=7,no=8,missing=8
			7:[f0<54] yes=11,no=12,missing=12
				11:[f36<1] yes=15,no=16,missing=16
					15:leaf=-0.0672447607
					16:leaf=0.00311746425
				12:leaf=0.0122319935
			8:leaf=0.0176225435
	2:leaf=-0.0222727992
booster[111]:
0:[f0<44] yes=1,no=2,missing=2
	1:[f36<1] yes=3,no=4,missing=4
		3:[f0<40] yes=7,no=8,missing=8
			7:leaf=-0.0291308593
			8:leaf=0.0242900364
		4:leaf=-0.036523059
	2:[f0<51] yes=5,no=6,missing=6
		5:[f0<47] yes=9,no=10,missing=10
			9:leaf=0.00339285098
			10:[f28<1] yes=13,no=14,missing=14
				13:leaf=-0.0119323758
				14:leaf=0.0572784208
		6:[f0<55] yes=11,no=12,missing=12
			11:leaf=-0.028850425
			12:[f0<64] yes=15,no=16,missing=16
				15:[f28<1] yes=17,no=18,missing=18
					17:[f0<58] yes=19,no=20,missing=20
						19:leaf=0.0223677289
						20:leaf=-0.0303278882
					18:leaf=0.0443914309
				16:leaf=-0.0104762139
booster[112]:
0:[f34<1] yes=1,no=2,missing=2
	1:[f0<61] yes=3,no=4,missing=4
		3:[f35<1] yes=5,no=6,missing=6
			5:[f0<50] yes=9,no=10,missing=10
				9:[f0<42] yes=11,no=12,missing=12
					11:[f31<1] yes=15,no=16,missing=16
						15:leaf=0.0098134242
						16:leaf=-0.0110143228
					12:[f26<1] yes=17,no=18,missing=18
						17:leaf=0.0576074868
						18:[f32<1] yes=21,no=22,missing=22
							21:leaf=-0.00802681781
							22:leaf=0.0345023572
				10:[f2<1] yes=13,no=14,missing=14
					13:leaf=0.0170206614
					14:[f27<1] yes=19,no=20,missing=20
						19:leaf=-0.00350207719
						20:leaf=-0.0517657213
			6:leaf=-0.0477535315
		4:[f4<1] yes=7,no=8,missing=8
			7:leaf=0.0479688458
			8:leaf=-0.0081796078
	2:leaf=-0.0302462615
booster[113]:
0:[f0<52] yes=1,no=2,missing=2
	1:[f6<1] yes=3,no=4,missing=4
		3:[f31<1] yes=7,no=8,missing=8
			7:[f33<1] yes=11,no=12,missing=12
				11:[f0<47] yes=17,no=18,missing=18
					17:leaf=-0.0786861256
					18:leaf=-0.0230128281
				12:leaf=0.00236681127
			8:[f0<45] yes=13,no=14,missing=14
				13:leaf=0.0492237695
				14:leaf=-0.0163832251
		4:leaf=0.0187065061
	2:[f2<1] yes=5,no=6,missing=6
		5:leaf=-0.0199632868
		6:[f0<64] yes=9,no=10,missing=10
			9:[f27<1] yes=15,no=16,missing=16
				15:[f28<1] yes=19,no=20,missing=20
					19:leaf=0.0162305199
					20:leaf=0.0664703175
				16:leaf=-0.00493192673
			10:leaf=-0.0113872997
booster[114]:
0:[f5<1] yes=1,no=2,missing=2
	1:[f31<1] yes=3,no=4,missing=4
		3:[f25<1] yes=5,no=6,missing=6
			5:[f35<1] yes=9,no=10,missing=10
				9:[f2<1] yes=13,no=14,missing=14
					13:[f0<47] yes=17,no=18,missing=18
						17:leaf=0.0460874327
						18:leaf=-0.0143972011
					14:leaf=0.055980131
				10:leaf=-0.0281867106
			6:leaf=-0.0296235699
		4:[f0<41] yes=7,no=8,missing=8
			7:leaf=0.0233447738
			8:[f0<55] yes=11,no=12,missing=12
				11:leaf=-0.0416770317
				12:[f26<1] yes=15,no=16,missing=16
					15:leaf=0.0178641099
					16:leaf=-0.00962077267
	2:leaf=-0.0221359767
booster[115]:
0:[f34<1] yes=1,no=2,missing=2
	1:[f0<61] yes=3,no=4,missing=4
		3:[f0<56] yes=5,no=6,missing=6
			5:[f5<1] yes=9,no=10,missing=10
				9:[f25<1] yes=11,no=12,missing=12
					11:[f0<52] yes=13,no=14,missing=14
						13:[f31<1] yes=15,no=16,missing=16
							15:leaf=0.034307126
							16:leaf=-0.0258505065
						14:leaf=0.0565408953
					12:leaf=-0.016771147
				10:leaf=-0.0404551327
			6:leaf=-0.0440914333
		4:[f4<1] yes=7,no=8,missing=8
			7:leaf=0.0431396402
			8:leaf=-0.00684471056
	2:leaf=-0.0271012802
booster[116]:
0:[f34<1] yes=1,no=2,missing=2
	1:[f0<50] yes=3,no=4,missing=4
		3:[f35<1] yes=5,no=6,missing=6
			5:[f0<42] yes=9,no=10,missing=10
				9:leaf=-0.0055799773
				10:[f26<1] yes=15,no=16,missing=16
					15:leaf=0.0547038727
					16:[f32<1] yes=21,no=22,missing=22
						21:leaf=0.0029161484
						22:leaf=0.0265852269
			6:leaf=-0.0233061612
		4:[f0<60] yes=7,no=8,missing=8
			7:[f2<1] yes=11,no=12,missing=12
				11:leaf=0.00821480155
				12:[f26<1] yes=17,no=18,missing=18
					17:leaf=-0.0707955062
					18:leaf=0.0108290222
			8:[f25<1] yes=13,no=14,missing=14
				13:[f32<1] yes=19,no=20,missing=20
					19:leaf=-0.0356183536
					20:leaf=0.0164299309
				14:leaf=0.0591547154
	2:leaf=-0.0228724014
booster[117]:
0:[f3<1] yes=1,no=2,missing=2
	1:[f0<62] yes=3,no=4,missing=4
		3:[f4<1] yes=7,no=8,missing=8
			7:leaf=-0.0108684637
			8:[f0<57] yes=13,no=14,missing=14
				13:leaf=0.05244736
				14:leaf=-0.0032148913
		4:[f36<1] yes=9,no=10,missing=10
			9:leaf=-0.0263545197
			10:leaf=0.0101555083
	2:[f0<50] yes=5,no=6,missing=6
		5:[f27<1] yes=11,no=12,missing=12
			11:[f0<44] yes=15,no=16,missing=16
				15:[f0<38] yes=17,no=18,missing=18
					17:leaf=0.0242994074
					18:leaf=-0.0377639048
				16:leaf=0.0349634811
			12:leaf=-0.0315144323
		6:leaf=-0.0287775621
booster[118]:
0:[f0<52] yes=1,no=2,missing=2
	1:[f25<1] yes=3,no=4,missing=4
		3:[f0<42] yes=7,no=8,missing=8
			7:[f0<38] yes=13,no=14,missing=14
				13:leaf=-0.0241345521
				14:leaf=0.0680553019
			8:[f36<1] yes=15,no=16,missing=16
				15:leaf=-0.0495539308
				16:leaf=-0.00146477169
		4:leaf=0.0166436397
	2:[f0<62] yes=5,no=6,missing=6
		5:[f4<1] yes=9,no=10,missing=10
			9:leaf=-0.00418702234
